svm_type c_svc
kernel_type rbf
gamma 0.02564102564102564
nr_class 2
total_sv 456
rho -0.88059240424973662
label 0 1
probA -3.6240185827763329
probB 0.96074269616418384
nr_sv 408 48
SV
0.11944230219671559 1:6 2:9 3:2 4:1 6:16 7:5 8:0.2 9:8 10:3 11:0.6 12:17 13:1 15:24 16:3 19:32.54 20:9.5 21:2936.77 22:0.1 23:63 24:0.11 25:163.15 26:309.13 27:0.2 28:4 29:8 30:14 31:0.16 32:19 33:44 34:15 35:15 36:32 37:1 38:4 39:25 
0.11899996199096265 1:1 2:1 3:2 7:1 8:0.14 10:1 11:1 12:3 13:1 15:7 16:1 19:17.43 20:2 21:69.74 22:0.01 23:11 24:0.5 25:3.87 26:34.87 27:1 30:4 31:0.11 32:5 33:6 34:5 35:4 36:9 37:1 39:7 
0.11933550963611278 1:7 2:3 3:2 6:4 7:2 8:0.17 9:2 10:2 11:1 12:6 13:1 15:12 16:2 19:14.62 20:6.43 21:604.36 22:0.03 23:23 24:0.16 25:33.58 26:94.01 27:0.5 28:1 29:2 30:6 31:0.1 32:9 33:14 34:7 35:10 36:20 37:1 39:12 
0.11933715954101543 1:51 2:25 3:13 5:14 6:48 7:13 8:0.12 9:24 10:11 11:0.85 12:96 13:1 15:106 16:2 19:101.31 20:27.04 21:74089.87 22:0.91 23:421 24:0.04 25:4116.1 26:2739.78 27:0.08 28:12 29:24 30:85 31:0.08 32:192 33:229 34:71 35:20 36:172 37:1 38:11.67 39:106 
0.11933719866687964 1:3 2:5 3:2 6:8 7:3 8:0.2 9:4 10:3 11:1 12:12 13:1 15:15 16:1 19:8.17 20:18 21:2648.68 22:0.05 23:36 24:0.06 25:147.15 26:147.15 27:0.33 28:2 29:4 30:11 31:0.16 32:15 33:21 34:5 35:12 36:19 37:1 39:15 
0.11933689302030881 1:13 2:9 3:5 4:12 5:16 6:16 7:5 8:0.14 9:8 10:5 11:1 12:21 13:5 14:1 15:25 16:4 19:38.51 20:14.25 21:7820.87 22:0.18 23:107 24:0.07 25:434.49 26:548.83 27:1 28:4 29:8 30:18 31:0.07 32:38 33:69 34:20 35:15 36:67 37:1 38:52.83 39:37 
0.11933681098308524 1:22 2:29 4:8 5:35 6:44 7:15 8:0.28 9:16 10:1 11:0.07 12:45 13:3 14:0.14 15:46 19:61.1 20:22.3 21:30377.95 22:0.45 23:239 24:0.04 25:1687.66 26:1362.41 27:0.2 28:14 29:22 30:32 31:0.13 32:110 33:129 34:37 35:15 36:112 37:1 38:48.31 39:54 
0.11933681080614966 1:16 2:9 3:2 4:11 5:28 6:12 7:5 8:0.11 9:4 10:1 11:0.2 12:21 13:5 14:1 15:34 16:2 19:41.24 20:20.76 21:17773.08 22:0.29 23:155 24:0.05 25:987.39 26:856.15 27:1 28:4 29:6 30:18 31:0.06 32:59 33:96 34:27 35:19 36:90 37:1 38:53.42 39:45 
0.11933540957371935 1:4 2:3 4:2 5:4 6:4 7:2 8:0.17 9:2 10:1 11:0.5 12:6 13:1 15:10 16:1 19:15.9 20:9 21:1287.55 22:0.05 23:35 24:0.11 25:71.53 26:143.06 27:0.5 28:1 29:2 30:6 31:0.1 32:16 33:19 34:8 35:9 36:21 37:1 38:37.5 39:12 
0.11933540957371935 1:23 2:13 4:10 5:17 6:24 7:7 8:0.21 9:12 10:1 11:0.14 12:27 13:5 14:0.67 15:23 16:3 19:27.4 20:28.12 21:21659.58 22:0.26 23:157 24:0.04 25:1203.31 26:770.38 27:0.71 28:6 29:12 30:22 31:0.09 32:43 33:114 34:13 35:17 36:74 37:1 38:54 39:33 
0.11934070196776231 1:23 2:13 4:10 5:17 6:24 7:7 8:0.21 9:12 10:1 11:0.14 12:27 13:5 14:0.67 15:23 16:3 19:17.45 20:27.22 21:12929.85 22:0.16 23:105 24:0.04 25:718.32 26:474.97 27:0.71 28:6 29:12 30:22 31:0.09 32:35 33:70 34:9 35:14 36:74 37:1 38:54 39:33 
0.11935540918048188 1:40 2:9 3:4 4:2 5:15 6:16 7:5 8:0.15 9:8 10:2 11:0.4 12:21 13:1 15:31 19:47.41 20:27.5 21:35852.6 22:0.43 23:231 24:0.04 25:1991.81 26:1303.73 27:0.2 28:4 29:8 30:18 31:0.06 32:70 33:161 34:28 35:22 36:89 37:1 38:35.42 39:33 
0.11935841301699085 1:23 2:9 3:6 4:3 5:20 6:16 7:5 8:0.19 9:8 10:2 11:0.4 12:23 13:1 15:24 19:43.1 20:15.2 21:9958 22:0.22 23:120 24:0.07 25:553.22 26:655.13 27:0.2 28:4 29:8 30:20 31:0.07 32:40 33:80 34:25 35:19 36:71 37:1 38:48.94 39:27 
0.1193586128512546 1:8 2:3 3:1 4:6 5:5 6:4 7:2 8:0.11 9:2 10:1 11:0.5 12:7 13:1 15:13 16:1 19:29.61 20:9.15 21:2480.95 22:0.09 23:57 24:0.11 25:137.83 26:271.03 27:0.5 28:1 29:2 30:7 31:0.06 32:17 33:40 34:13 35:14 36:33 37:1 38:45.83 39:19 
0.066292177066537755 1:2 2:1 3:1 4:1 5:1 7:1 8:0.14 10:1 11:1 12:2 13:1 15:6 16:1 19:13.88 20:4 21:222.03 22:0.02 23:15 24:0.25 25:12.33 26:55.51 27:1 30:3 31:0.09 32:5 33:10 34:5 35:8 36:11 37:1 38:25 39:7 
0.11936950977644406 1:19 2:3 3:1 4:2 6:4 7:2 8:0.06 9:2 10:2 11:1 12:23 13:1 15:33 19:64.01 20:11.65 21:8684.99 22:0.25 23:135 24:0.09 25:482.5 26:745.68 27:0.5 28:1 29:2 30:23 31:0.04 32:66 33:69 34:34 35:12 36:55 37:1 38:5.71 39:35 
0.063502652212406294 2:1 3:1 4:1 5:1 7:1 8:0.14 10:1 11:1 12:2 13:1 15:6 16:1 19:13.88 20:4 21:222.03 22:0.02 23:15 24:0.25 25:12.33 26:55.51 27:1 30:3 31:0.11 32:5 33:10 34:5 35:8 36:9 37:1 38:25 39:7 
0.11936470445024516 1:7 2:6 4:1 7:5 8:0.12 10:1 11:0.2 12:12 13:1 15:41 16:1 19:36.35 20:21.98 21:17553.08 22:0.27 23:157 24:0.05 25:975.17 26:798.73 27:0.2 30:9 31:0.1 32:71 33:86 34:21 35:13 36:50 37:1 38:2.38 39:42 
0.11936294165264716 1:6 2:7 4:6 6:10 7:4 8:0.15 9:4 10:1 11:0.25 12:13 13:4 14:1 15:21 16:1 19:21.34 20:24.44 21:12748.97 22:0.17 23:98 24:0.04 25:708.28 26:521.54 27:1 28:3 29:5 30:11 31:0.12 32:40 33:58 34:18 35:22 36:34 37:1 38:22.22 39:27 
0.11936055824708031 1:134 2:60 3:9 4:63 5:31 6:38 7:41 8:0.17 9:16 10:23 11:0.56 12:118 13:6 14:0.13 15:177 16:5 19:101.81 20:54.82 21:305928.62 22:1.86 23:767 24:0.02 25:16996.03 26:5580.79 27:0.15 28:11 29:19 30:79 31:0.1 32:268 33:499 34:110 35:45 36:406 37:1 38:34.69 39:240 
0.11940301671380132 1:9 2:8 3:2 4:4 5:5 6:8 7:5 8:0.28 9:4 10:3 11:0.6 12:14 13:1 15:14 19:12.36 20:15 21:2781.99 22:0.06 23:41 24:0.07 25:154.56 26:185.47 27:0.2 28:2 29:4 30:11 31:0.15 32:16 33:25 34:8 35:15 36:33 37:1 38:39.13 39:18 
0.11940475273755347 1:164 2:110 3:26 4:37 5:191 6:128 7:70 8:0.18 9:54 10:46 11:0.66 12:241 13:27 14:0.38 15:361 16:1 19:157.03 20:97.73 21:1499684.3 22:5.12 23:1844 24:0.01 25:83315.8 26:15345.64 27:0.39 28:37 29:66 30:173 31:0.09 32:711 33:1133 34:251 35:69 36:764 37:1 38:38.71 39:398 
0.11940746942399816 1:27 2:24 3:11 4:3 5:48 6:34 7:13 8:0.16 9:14 10:10 11:0.77 12:53 13:7 14:0.5 15:76 16:1 19:60.5 20:32.21 21:62767.66 22:0.65 23:298 24:0.03 25:3487.09 26:1948.67 27:0.54 28:10 29:19 30:42 31:0.08 32:102 33:196 34:57 35:36 36:155 37:1 38:40.16 39:79 
0.11941179053164686 1:4 2:1 3:1 5:10 7:1 8:0.03 10:1 11:1 12:2 13:1 15:31 19:116.21 20:22.83 21:60566.12 22:0.88 23:461 24:0.04 25:3364.78 26:2653 27:1 30:3 31:0.02 32:144 33:317 34:41 35:13 36:46 37:1 38:24.39 39:31 
0.11941245882832235 1:5 2:5 3:1 6:8 7:3 8:0.15 9:4 10:3 11:1 12:10 13:1 15:20 16:1 19:34.17 20:10.29 21:3620.93 22:0.12 23:71 24:0.1 25:201.16 26:351.75 27:0.33 28:2 29:4 30:9 31:0.12 32:25 33:46 34:17 35:14 36:26 37:1 39:20 
0.11941511787373987 1:7 2:9 3:3 4:4 5:5 6:14 7:5 8:0.16 9:6 10:3 11:0.6 12:20 13:3 14:0.5 15:27 19:24.71 20:21.86 21:11802.86 22:0.18 23:108 24:0.05 25:655.71 26:540 27:0.6 28:4 29:7 30:17 31:0.11 32:34 33:74 34:14 35:18 36:44 37:1 38:25 39:31 
0.11941869659513271 1:16 2:5 3:7 4:2 5:24 6:8 7:3 8:0.18 9:4 10:3 11:1 12:15 13:1 15:15 16:1 19:36.19 20:7.18 21:1867.89 22:0.09 23:52 24:0.14 25:103.77 26:260 27:0.33 28:2 29:4 30:14 31:0.05 32:21 33:31 34:19 35:13 36:58 37:1 38:63.41 39:17 
0.11941273738310404 1:15 2:7 3:3 4:3 5:8 6:12 7:4 8:0.25 9:6 10:4 11:1 12:15 13:1 15:13 19:26.75 20:11.03 21:3253.68 22:0.1 23:59 24:0.09 25:180.76 26:295 27:0.25 28:3 29:6 30:13 31:0.1 32:25 33:34 34:17 35:15 36:40 37:1 38:45.83 39:16 
0.11941193029093788 1:19 2:5 3:4 4:2 5:16 6:8 7:3 8:0.11 9:4 10:3 11:1 12:14 13:1 15:25 16:1 19:48.49 20:14.11 21:9649.29 22:0.23 23:120 24:0.07 25:536.07 26:684.05 27:0.33 28:2 29:4 30:13 31:0.04 32:49 33:71 34:33 35:19 36:70 37:1 38:41.86 39:27 
0.11941192929083605 1:19 2:7 3:5 4:5 5:10 6:12 7:4 8:0.15 9:6 10:4 11:1 12:15 13:4 14:1 15:22 16:1 19:28.43 20:13.42 21:5120.93 22:0.13 23:75 24:0.07 25:284.5 26:381.56 27:1 28:3 29:6 30:13 31:0.07 32:34 33:41 34:19 35:15 36:57 37:1 38:40.54 39:27 
0.1194176149306368 1:15 2:11 3:4 4:5 5:19 6:20 7:6 8:0.18 9:10 10:4 11:0.67 12:23 13:1 15:28 16:2 19:30.61 20:23.1 21:16332.07 22:0.24 23:128 24:0.04 25:907.34 26:707.02 27:0.17 28:5 29:10 30:19 31:0.08 32:55 33:73 34:25 35:21 36:75 37:1 38:46.15 39:33 
0.11943403262459312 1:13 2:3 3:1 4:3 5:18 6:4 7:2 8:0.1 9:2 10:2 11:1 12:6 13:1 15:18 16:2 19:25.62 20:24.42 21:15282.02 22:0.21 23:122 24:0.04 25:849 26:625.77 27:0.5 28:1 29:2 30:6 31:0.04 32:58 33:64 34:19 35:16 36:53 37:1 38:53.85 39:21 
0.11943794222944021 1:14 2:9 3:3 4:2 5:20 6:16 7:5 8:0.19 9:8 10:3 11:0.6 12:21 13:1 15:24 16:1 19:27.08 20:39.72 21:42716.37 22:0.36 23:197 24:0.03 25:2373.13 26:1075.51 27:0.2 28:4 29:8 30:18 31:0.07 32:87 33:110 34:23 35:21 36:68 37:1 38:47.83 39:26 
0.11943645805383324 1:12 2:9 3:4 4:2 5:12 6:16 7:5 8:0.13 9:8 10:5 11:1 12:22 13:1 15:38 16:1 19:54.44 20:19.25 21:20172.82 22:0.35 23:176 24:0.05 25:1120.71 26:1047.94 27:0.2 28:4 29:8 30:19 31:0.07 32:70 33:106 34:40 35:22 36:73 37:1 38:26.92 39:40 
0.11944060098471254 1:23 2:9 3:5 4:10 5:9 6:16 7:5 8:0.12 9:8 10:5 11:1 12:21 13:5 14:1 15:31 16:1 19:54.55 20:14.84 21:12009.6 22:0.27 23:140 24:0.07 25:667.2 26:809.39 27:1 28:4 29:8 30:18 31:0.07 32:61 33:79 34:37 35:18 36:74 37:1 38:38 39:41 
0.11945292027008597 1:42 2:11 3:10 4:5 5:44 6:20 7:6 8:0.16 9:10 10:6 11:1 12:30 13:1 15:32 19:53.31 20:12.89 21:8852.8 22:0.23 23:123 24:0.08 25:491.82 26:686.95 27:0.17 28:5 29:10 30:26 31:0.05 32:47 33:76 34:31 35:17 36:124 37:1 38:60.49 39:37 
0.11946216459425579 1:26 2:17 3:4 4:5 5:32 6:28 7:9 8:0.13 9:12 10:6 11:0.67 12:39 13:4 14:0.38 15:62 16:2 19:97.49 20:20.91 21:42621.97 22:0.68 23:314 24:0.05 25:2367.89 26:2038.44 27:0.44 28:8 29:14 30:32 31:0.07 32:115 33:199 34:66 35:24 36:126 37:1 38:37.37 39:67 
0.1194737701061836 1:40 2:11 3:12 4:3 5:47 6:20 7:6 8:0.14 9:10 10:5 11:0.83 12:40 13:1 15:41 19:61.64 20:16.96 21:17733.62 22:0.35 23:177 24:0.06 25:985.2 26:1045.52 27:0.17 28:5 29:10 30:36 31:0.05 32:63 33:114 34:39 35:21 36:132 37:1 38:54.95 39:44 
0.11938468978072336 1:7 2:3 3:2 5:6 7:2 8:0.25 10:1 11:0.5 12:8 13:1 15:8 19:28.75 20:5.5 21:869.68 22:0.05 23:36 24:0.18 25:48.32 26:158.12 27:0.5 30:8 31:0.09 32:10 33:26 34:10 35:11 36:22 37:1 38:42.86 39:8 
0.11945745802311963 1:7 2:7 3:2 5:8 6:12 7:4 8:0.16 9:6 10:1 11:0.25 12:16 13:1 15:25 19:31.67 20:15 21:7125 22:0.16 23:95 24:0.07 25:395.83 26:475 27:0.25 28:3 29:6 30:14 31:0.1 32:30 33:65 34:16 35:16 36:41 37:1 38:24.24 39:25 
0.11946619424349536 1:9 2:5 3:3 4:2 5:2 6:8 7:3 8:0.16 9:4 10:3 11:1 12:11 13:1 15:17 19:36.74 20:14.57 21:7799.92 22:0.18 23:102 24:0.07 25:433.33 26:535.29 27:0.33 28:2 29:4 30:10 31:0.1 32:36 33:66 34:21 35:17 36:31 37:1 38:19.05 39:19 
0.1193768465575813 1:3 2:1 3:1 5:3 7:1 8:0.13 10:1 11:1 12:7 13:1 15:8 19:24.41 20:8.36 21:1704.86 22:0.07 23:51 24:0.12 25:94.71 26:204 27:1 30:8 31:0.03 32:13 33:38 34:7 35:9 36:32 37:1 38:27.27 39:8 
0.11946086152167706 1:12 2:7 3:2 4:2 5:2 6:12 7:4 8:0.2 9:6 10:4 11:1 12:14 13:1 15:18 16:1 19:54.3 20:7.89 21:3382.91 22:0.14 23:80 24:0.13 25:187.94 26:428.6 27:0.25 28:3 29:6 30:12 31:0.11 32:34 33:46 34:28 35:13 36:35 37:1 38:18.18 39:20 
0.099913060543323051 2:1 3:2 4:1 5:2 7:1 8:0.14 10:1 11:1 12:3 13:1 15:6 16:1 19:11.58 20:2.67 21:82.35 22:0.01 23:11 24:0.38 25:4.57 26:30.88 27:1 30:4 31:0.1 32:4 33:7 34:3 35:4 36:10 37:1 38:33.33 39:7 
0.11946100661416725 1:39 2:13 3:7 4:4 5:28 6:24 7:7 8:0.13 9:12 10:7 11:1 12:33 13:1 15:48 16:1 19:124.44 20:13.9 21:24028.83 22:0.58 23:262 24:0.07 25:1334.93 26:1729.18 27:0.14 28:6 29:12 30:28 31:0.06 32:107 33:155 34:77 35:20 36:120 37:1 38:40 39:52 
0.11945110443883206 1:77 2:19 3:6 4:4 5:31 6:36 7:10 8:0.08 9:18 10:10 11:1 12:69 13:1 15:127 16:1 19:208.02 20:26.3 21:143936.36 22:1.82 23:753 24:0.04 25:7996.46 26:5471.89 27:0.1 28:9 29:18 30:61 31:0.04 32:259 33:494 34:128 35:26 36:240 37:1 38:21.6 39:131 
0.11945127890502577 1:55 2:7 3:9 5:23 6:12 7:4 8:0.19 9:6 10:4 11:1 12:19 13:1 15:21 19:51.3 20:7.64 21:2991.43 22:0.13 23:77 24:0.13 25:166.19 26:391.73 27:0.25 28:3 29:6 30:17 31:0.04 32:28 33:49 34:22 35:12 36:100 37:1 38:52.27 39:21 
0.11945707702931646 1:17 2:23 3:2 5:34 6:42 7:12 8:0.18 9:20 10:8 11:0.67 12:46 13:3 14:0.18 15:65 19:108.84 20:15.19 21:25107.55 22:0.55 23:263 24:0.07 25:1394.86 26:1653.06 27:0.25 28:11 29:21 30:36 31:0.1 32:109 33:154 34:61 35:17 36:117 37:1 38:34.34 39:65 
0.11945436289128097 1:12 2:3 3:2 4:1 5:8 6:4 7:2 8:0.06 9:2 10:2 11:1 12:6 13:1 15:32 19:68.36 20:18.78 21:24116.87 22:0.43 23:214 24:0.05 25:1339.83 26:1284 27:0.5 28:1 29:2 30:6 31:0.04 32:96 33:118 34:46 35:18 36:54 37:1 38:21.95 39:33 
0.11930578908685169 1:13 2:9 3:7 4:1 5:20 6:16 7:5 8:0.21 9:8 10:5 11:1 12:20 13:1 15:23 19:30.19 20:7.85 21:1858.26 22:0.08 23:51 24:0.13 25:103.24 26:236.84 27:0.2 28:4 29:8 30:17 31:0.09 32:17 33:34 34:13 35:12 36:58 37:1 38:47.73 39:24 
0.11940910723434556 1:3 2:3 4:1 5:6 6:4 7:2 8:0.22 9:2 10:1 11:0.5 12:5 13:1 15:8 16:1 19:10.63 20:3.75 21:149.49 22:0.01 23:12 24:0.27 25:8.3 26:39.86 27:0.5 28:1 29:2 30:5 31:0.11 32:5 33:7 34:4 35:6 36:19 37:1 38:46.67 39:9 
0.11945469751969801 1:22 2:19 3:8 4:1 5:1 6:28 7:11 8:0.17 9:14 10:9 11:0.82 12:55 13:10 14:0.9 15:63 16:2 19:40.21 20:43.24 21:75169.98 22:0.58 23:292 24:0.02 25:4176.1 26:1738.63 27:0.91 28:7 29:14 30:46 31:0.13 32:105 33:187 34:34 35:28 36:88 37:1 38:3.08 39:64 
0.11946591224200837 1:12 2:7 3:4 4:1 6:12 7:4 8:0.17 9:6 10:4 11:1 12:19 13:4 14:1 15:22 16:2 19:30.25 20:10.71 21:3467.15 22:0.11 23:66 24:0.09 25:192.62 26:323.85 27:1 28:3 29:6 30:17 31:0.11 32:28 33:38 34:17 35:13 36:36 37:1 38:4.35 39:23 
0.11946134387409552 1:15 2:13 3:4 4:1 5:1 6:24 7:7 8:0.19 9:12 10:6 11:0.86 12:39 13:1 15:36 16:2 19:34.37 20:26.52 21:24176.72 22:0.3 23:168 24:0.04 25:1343.15 26:911.61 27:0.14 28:6 29:12 30:34 31:0.13 32:67 33:101 34:24 35:19 36:54 37:1 38:5.26 39:37 
0.11947553939531319 1:5 2:3 3:1 4:1 5:2 6:4 7:2 8:0.08 9:2 10:2 11:1 12:21 13:1 15:23 16:2 19:56.67 20:6.13 21:2126.03 22:0.12 23:73 24:0.16 25:118.11 26:347.11 27:0.5 28:1 29:2 30:21 31:0.06 32:35 33:38 34:20 35:7 36:32 37:1 38:11.54 39:24 
0.119407449144732 1:12 2:9 3:3 4:1 5:1 6:16 7:5 8:0.24 9:8 10:4 11:0.8 12:19 13:5 14:1 15:20 16:2 19:23.83 20:11.5 21:3151.22 22:0.09 23:57 24:0.09 25:175.07 26:274.02 27:1 28:4 29:8 30:16 31:0.14 32:23 33:34 34:14 35:14 36:35 37:1 38:9.09 39:21 
0.11947283128668074 1:9 2:7 3:3 4:4 6:12 7:4 8:0.19 9:6 10:4 11:1 12:17 13:4 14:1 15:17 16:2 19:26.81 20:10.4 21:2899.8 22:0.09 23:58 24:0.1 25:161.1 26:278.83 27:1 28:3 29:6 30:15 31:0.13 32:24 33:34 34:15 35:13 36:31 37:1 38:19.05 39:21 
0.11940809126449892 1:27 2:27 3:7 4:3 5:1 6:44 7:15 8:0.2 9:22 10:12 11:0.8 12:66 13:8 14:0.5 15:73 16:2 19:36.37 20:50.39 21:92350.98 22:0.61 23:299 24:0.02 25:5130.61 26:1832.66 27:0.53 28:11 29:22 30:53 31:0.14 32:113 33:186 34:37 35:33 36:105 37:1 38:5.19 39:76 
0.11923994271747707 1:7 2:3 3:1 4:4 5:1 6:4 7:2 8:0.2 9:2 10:2 11:1 12:6 13:1 15:6 16:2 19:16.39 20:3.5 21:200.76 22:0.02 23:16 24:0.29 25:11.15 26:57.36 27:0.5 28:1 29:2 30:6 31:0.11 32:5 33:11 34:5 35:7 36:19 37:1 38:45.45 39:10 
0.11936001736240881 1:10 2:7 3:5 4:5 5:1 6:12 7:4 8:0.18 9:6 10:3 11:0.75 12:21 13:1 15:17 16:2 19:31.11 20:12.06 21:4520.83 22:0.13 23:75 24:0.08 25:251.16 26:375 27:0.25 28:3 29:6 30:19 31:0.12 32:31 33:44 34:18 35:14 36:34 37:1 38:26.09 39:22 
0.11935501904742774 1:22 2:23 3:7 4:3 5:1 6:36 7:13 8:0.19 9:18 10:9 11:0.69 12:59 13:9 14:0.67 15:64 16:2 19:39.47 20:43.33 21:74124.42 22:0.57 23:283 24:0.02 25:4118.02 26:1710.56 27:0.69 28:9 29:18 30:48 31:0.14 32:104 33:179 34:36 35:30 36:91 37:1 38:5.88 39:67 
0.11935446435811903 1:3 2:7 3:1 6:10 7:4 8:0.2 9:4 10:2 11:0.5 12:12 13:4 14:1 15:20 16:1 19:13.47 20:16 21:3447.89 22:0.07 23:47 24:0.06 25:191.55 26:215.49 27:1 28:3 29:5 30:10 31:0.17 32:16 33:31 34:8 35:16 36:24 37:1 39:20 
0.11939257713085416 1:3 2:11 3:1 6:16 7:6 8:0.25 9:6 10:2 11:0.33 12:18 13:6 14:1 15:24 16:1 19:19.97 20:17.33 21:5999.58 22:0.12 23:72 24:0.06 25:333.31 26:346.13 27:1 28:5 29:8 30:14 31:0.21 32:26 33:46 34:12 35:16 36:28 37:1 39:24 
0.11809677863865728 2:5 6:6 7:3 8:0.33 9:2 10:1 11:0.33 12:8 13:3 14:1 15:9 16:1 19:14.65 20:4.8 21:337.48 22:0.02 23:19 24:0.21 25:18.75 26:70.31 27:1 28:2 29:3 30:7 31:0.3 32:6 33:13 34:5 35:8 36:10 37:1 39:9 
0.11985134637531852 2:9 6:10 7:5 8:0.56 9:2 10:1 11:0.2 12:12 13:5 14:1 15:9 16:1 19:19.29 20:6.43 21:797.14 22:0.04 23:31 24:0.16 25:44.29 26:124 27:1 28:4 29:7 30:9 31:0.5 32:10 33:21 34:7 35:9 36:10 37:1 39:9 
0.11938607122138195 2:5 6:6 7:3 8:0.33 9:2 10:1 11:0.33 12:8 13:3 14:1 15:9 16:1 19:9.14 20:10 21:913.77 22:0.03 23:24 24:0.1 25:50.76 26:91.38 27:1 28:2 29:3 30:7 31:0.3 32:8 33:16 34:4 35:10 36:10 37:1 39:9 
0.11939135380716942 2:3 6:4 7:2 8:0.14 9:2 10:1 11:0.5 12:6 13:1 15:14 16:2 19:36.78 20:7.07 21:1838.97 22:0.09 23:56 24:0.14 25:102.16 26:260.06 27:0.5 28:1 29:2 30:6 31:0.13 32:18 33:38 34:14 35:11 36:15 37:1 39:14 
0.11937376085872009 1:39 2:9 3:8 4:9 5:14 6:16 7:5 8:0.07 9:8 10:5 11:1 12:24 13:1 15:60 16:8 19:97.85 20:22.12 21:47876.6 22:0.72 23:331 24:0.05 25:2659.81 26:2164.46 27:0.2 28:4 29:8 30:21 31:0.03 32:114 33:217 34:67 35:26 36:146 37:1 38:27.71 39:69 
0.11767007733956225 1:5 2:1 3:1 5:2 7:1 8:0.1 10:1 11:1 12:2 13:1 15:10 16:1 19:20.41 20:6.13 21:765.75 22:0.04 23:32 24:0.16 25:42.54 26:125.02 27:1 30:3 31:0.06 32:14 33:18 34:8 35:7 36:18 37:1 38:16.67 39:10 
0.11938524656869187 1:9 2:5 3:2 4:10 5:6 6:8 7:3 8:0.12 9:4 10:3 11:1 12:10 13:1 15:16 19:39.8 20:9 21:3223.83 22:0.12 23:73 24:0.11 25:179.1 26:358.2 27:0.33 28:2 29:4 30:9 31:0.07 32:27 33:46 34:18 35:12 36:42 37:1 38:50 39:26 
0.11923547468775342 1:4 2:3 3:2 5:4 6:4 7:2 8:0.17 9:2 10:2 11:1 12:6 13:1 15:12 16:1 19:23.34 20:6.11 21:871.59 22:0.05 23:33 24:0.16 25:48.42 26:142.62 27:0.5 28:1 29:2 30:6 31:0.1 32:10 33:23 34:9 35:11 36:21 37:1 38:25 39:12 
0.11938588613183088 1:3 2:3 6:4 7:2 8:0.15 9:2 10:1 11:0.5 12:6 13:1 15:13 16:2 19:18.1 20:9.63 21:1676.34 22:0.06 23:41 24:0.1 25:93.13 26:174.17 27:0.5 28:1 29:2 30:6 31:0.12 32:14 33:27 34:8 35:11 36:17 37:1 39:13 
0.11938664093759227 1:5 2:3 3:3 5:13 6:4 7:2 8:0.13 9:2 10:2 11:1 12:7 13:1 15:16 16:3 19:21.16 20:9.1 21:1752.37 22:0.06 23:42 24:0.11 25:97.35 26:192.57 27:0.5 28:1 29:2 30:7 31:0.06 32:13 33:29 34:10 35:14 36:35 37:1 38:44.83 39:16 
0.11938908724239833 1:22 2:7 3:2 4:3 5:5 6:10 7:4 8:0.13 9:4 10:3 11:0.75 12:12 13:3 14:0.67 15:27 16:3 19:28.78 20:18.12 21:9456.28 22:0.17 23:95 24:0.06 25:525.35 26:521.73 27:0.75 28:3 29:5 30:10 31:0.07 32:29 33:66 34:20 35:25 36:58 37:1 38:22.86 39:30 
0.11938532576867195 1:19 2:9 3:2 4:3 5:15 6:14 7:5 8:0.15 9:6 10:4 11:0.8 12:16 13:4 14:0.75 15:31 16:3 19:35.02 20:17.25 21:10420.79 22:0.2 23:110 24:0.06 25:578.93 26:604.1 27:0.8 28:4 29:7 30:13 31:0.07 32:33 33:77 34:22 35:23 36:69 37:1 38:36.73 39:34 
0.11538901105272975 1:5 2:1 5:1 7:1 8:0.1 10:1 11:1 12:1 13:1 15:10 16:2 19:14.04 20:2 21:56.15 22:0.01 23:10 24:0.5 25:3.12 26:28.07 27:1 30:2 31:0.06 32:3 33:7 34:3 35:4 36:17 37:1 38:9.09 39:10 
0.11941236600410027 1:12 2:9 3:3 4:2 5:28 6:16 7:5 8:0.13 9:8 10:3 11:0.6 12:19 13:1 15:37 16:2 19:30.93 20:16 21:7919.03 22:0.16 23:93 24:0.06 25:439.95 26:494.94 27:0.2 28:4 29:8 30:16 31:0.06 32:32 33:61 34:20 35:20 36:80 37:1 38:44.78 39:39 
0.1193857558580104 1:6 2:1 5:2 7:1 8:0.13 10:1 11:1 12:1 13:1 15:8 16:1 19:21.8 20:6.19 21:834.61 22:0.04 23:33 24:0.16 25:46.37 26:134.89 27:1 30:2 31:0.06 32:11 33:22 34:8 35:9 36:17 37:1 38:20 39:8 
0.11933442734283184 1:5 2:1 4:1 5:5 7:1 8:0.1 10:1 11:1 12:1 13:1 15:9 16:2 19:26.21 20:7 21:1284.34 22:0.06 23:44 24:0.14 25:71.35 26:183.48 27:1 30:2 31:0.05 32:14 33:30 34:9 35:9 36:21 37:1 38:40 39:10 
0.1194089444218574 1:3 2:1 5:5 7:1 8:0.11 10:1 11:1 12:1 13:1 15:9 16:2 19:17.05 20:8.25 21:1160.35 22:0.05 23:36 24:0.12 25:64.45 26:140.65 27:1 30:2 31:0.06 32:11 33:25 34:6 35:9 36:18 37:1 38:35.71 39:9 
0.11421790857778946 1:2 2:1 5:1 7:1 8:0.14 10:1 11:1 12:1 13:1 15:7 16:1 19:8.98 20:2.5 21:56.15 22:0.01 23:8 24:0.4 25:3.12 26:22.46 27:1 30:2 31:0.09 32:2 33:6 34:2 35:5 36:11 37:1 38:12.5 39:7 
0.11945134818657249 1:5 2:7 3:1 5:6 6:10 7:4 8:0.15 9:4 10:2 11:0.5 12:13 13:3 14:0.67 15:26 16:2 19:38.77 20:13.2 21:6756.06 22:0.17 23:99 24:0.08 25:375.34 26:511.82 27:0.75 28:3 29:5 30:11 31:0.11 32:33 33:66 34:20 35:16 36:38 37:1 38:18.75 39:26 
0.11919101055107034 1:5 2:1 5:2 7:1 8:0.14 10:1 11:1 12:1 13:1 15:7 16:1 19:16.28 20:6 21:586.03 22:0.03 23:25 24:0.17 25:32.56 26:97.67 27:1 30:2 31:0.07 32:8 33:17 34:6 35:9 36:15 37:1 38:22.22 39:7 
0.11945294598432438 1:5 2:1 5:6 7:1 8:0.07 10:1 11:1 12:1 13:1 15:14 16:1 19:27.99 20:13.05 21:4767.45 22:0.12 23:86 24:0.08 25:264.86 26:365.32 27:1 30:2 31:0.04 32:29 33:57 34:10 35:9 36:26 37:1 38:30 39:14 
0.11914816448959098 1:4 2:1 7:1 8:0.11 10:1 11:1 12:1 13:1 15:9 16:1 19:9.97 20:4.67 21:217.03 22:0.02 23:14 24:0.21 25:12.06 26:46.51 27:1 30:2 31:0.07 32:4 33:10 34:3 35:7 36:14 37:1 39:9 
0.11936219869772091 1:5 2:1 7:1 8:0.09 10:1 11:1 12:1 13:1 15:11 16:2 19:11.78 20:7 21:577.18 22:0.03 23:23 24:0.14 25:32.07 26:82.45 27:1 30:2 31:0.06 32:7 33:16 34:4 35:8 36:17 37:1 39:11 
0.11944263675234829 1:6 2:11 3:1 5:8 6:20 7:6 8:0.18 9:10 10:3 11:0.5 12:19 13:1 15:34 16:2 19:59.16 20:12.6 21:9398.15 22:0.25 23:135 24:0.08 25:522.12 26:745.68 27:0.17 28:5 29:10 30:15 31:0.12 32:43 33:92 34:29 35:17 36:49 37:1 38:19.05 39:34 
0.11843894882163035 1:4 2:1 5:1 7:1 8:0.14 10:1 11:1 12:1 13:1 15:7 16:1 19:9.96 20:3.5 21:122.04 22:0.01 23:11 24:0.29 25:6.78 26:34.87 27:1 30:2 31:0.08 32:2 33:9 34:2 35:7 36:13 37:1 38:12.5 39:7 
0.11945080372164069 1:21 2:13 3:5 4:2 5:30 6:22 7:7 8:0.21 9:10 10:5 11:0.71 12:24 13:1 15:31 16:1 19:26.31 20:23.5 21:14529.3 22:0.21 23:126 24:0.04 25:807.18 26:618.27 27:0.14 28:6 29:11 30:19 31:0.08 32:47 33:79 34:15 35:15 36:85 37:1 38:50.79 39:33 
0.11651729012087048 1:2 2:1 5:1 7:1 8:0.13 10:1 11:1 12:1 13:1 15:8 16:2 19:10.8 20:2.5 21:67.5 22:0.01 23:9 24:0.4 25:3.75 26:27 27:1 30:2 31:0.08 32:3 33:6 34:3 35:5 36:12 37:1 38:11.11 39:8 
0.09979148251056065 1:2 2:1 7:1 8:0.17 10:1 11:1 12:1 13:1 15:6 16:1 19:10 20:3 21:90 22:0.01 23:10 24:0.33 25:5 26:30 27:1 30:2 31:0.11 32:2 33:8 34:2 35:6 36:9 37:1 39:6 
0.079712938909658457 1:2 2:1 7:1 8:0.14 10:1 11:1 12:1 13:1 15:7 16:2 19:9.49 20:3.5 21:116.27 22:0.01 23:10 24:0.29 25:6.46 26:33.22 27:1 30:2 31:0.1 32:3 33:7 34:3 35:7 36:10 37:1 39:7 
0.1192505732990341 1:7 2:3 6:4 7:2 8:0.13 9:2 10:1 11:0.5 12:6 13:1 15:15 16:2 19:37.54 20:7.6 21:2168.23 22:0.1 23:60 24:0.13 25:120.46 26:285.29 27:0.5 28:1 29:2 30:6 31:0.09 32:19 33:41 34:15 35:12 36:23 37:1 39:15 
0.11937511676347828 1:7 2:1 7:1 8:0.06 10:1 11:1 12:1 13:1 15:16 16:2 19:34.64 20:8.36 21:2419.46 22:0.1 23:64 24:0.12 25:134.41 26:289.51 27:1 30:2 31:0.04 32:26 33:38 34:14 35:9 36:24 37:1 39:16 
0.11936977723397206 1:13 2:1 5:1 7:1 8:0.05 10:1 11:1 12:1 13:1 15:19 16:2 19:30.16 20:9.73 21:2855.37 22:0.1 23:64 24:0.1 25:158.63 26:293.44 27:1 30:2 31:0.02 32:23 33:41 34:13 35:11 36:42 37:1 38:5 39:19 
0.1193698728655711 1:10 2:7 3:2 4:6 5:12 6:12 7:4 8:0.19 9:6 10:4 11:1 12:15 13:4 14:1 15:15 16:2 19:18.1 20:16.36 21:4845.73 22:0.1 23:63 24:0.06 25:269.21 26:296.13 27:1 28:3 29:6 30:13 31:0.09 32:24 33:39 34:11 35:15 36:44 37:1 38:54.55 39:21 
0.11939110769390404 1:53 2:57 3:13 4:45 5:13 6:112 7:29 8:0.17 9:56 10:27 11:0.93 12:162 13:7 14:0.21 15:130 19:91.32 20:55.88 21:285170.84 22:1.7 23:729 24:0.02 25:15842.82 26:5103 27:0.24 28:28 29:56 30:135 31:0.11 32:309 33:420 34:94 35:34 36:259 37:1 38:30.85 39:175 
0.1193935543936257 1:12 2:7 3:8 4:3 5:3 6:12 7:4 8:0.12 9:6 10:4 11:1 12:25 13:1 15:30 19:30.45 20:20.71 21:13065.14 22:0.21 23:122 24:0.05 25:725.84 26:630.73 27:0.25 28:3 29:6 30:23 31:0.08 32:58 33:64 34:21 35:15 36:49 37:1 38:16.67 39:33 
0.11939304665312189 1:10 2:11 3:8 4:4 6:20 7:6 8:0.16 9:10 10:6 11:1 12:31 13:1 15:34 19:64.31 20:12 21:9260.02 22:0.26 23:146 24:0.08 25:514.45 26:771.67 27:0.17 28:5 29:10 30:27 31:0.12 32:54 33:92 34:27 35:12 36:49 37:1 38:10.53 39:38 
0.11937853272346549 1:47 2:15 3:7 4:27 5:28 6:20 7:9 8:0.1 9:10 10:6 11:0.67 12:50 13:1 15:59 16:1 19:47.3 20:45.77 21:99082.56 22:0.72 23:336 24:0.02 25:5504.59 26:2164.83 27:0.11 28:5 29:10 30:43 31:0.06 32:136 33:200 34:52 35:35 36:162 37:1 38:48.25 39:86 
0.11937208895982337 1:7 2:7 3:1 4:11 5:30 6:12 7:4 8:0.15 9:6 10:1 11:0.25 12:15 13:1 15:16 16:6 19:18.87 20:19.62 21:7260.95 22:0.12 23:77 24:0.05 25:403.39 26:370.17 27:0.25 28:3 29:6 30:13 31:0.06 32:34 33:43 34:13 35:15 36:65 37:1 38:71.93 39:27 
0.11938239497821335 1:33 2:23 3:1 4:5 5:95 6:44 7:12 8:0.17 9:22 10:1 11:0.08 12:60 13:1 15:65 16:4 19:79.18 20:42.02 21:139798.54 22:1.11 23:541 24:0.02 25:7766.59 26:3327.01 27:0.08 28:11 29:22 30:50 31:0.06 32:230 33:311 34:52 35:19 36:199 37:1 38:60.61 39:70 
0.10123298280975906 1:3 2:1 3:1 7:1 8:0.13 10:1 11:1 12:3 13:1 15:8 19:11.58 20:2.67 21:82.35 22:0.01 23:11 24:0.38 25:4.57 26:30.88 27:1 30:4 31:0.08 32:4 33:7 34:3 35:4 36:12 37:1 39:8 
0.11938750246753477 1:5 2:5 3:3 5:3 6:8 7:3 8:0.15 9:4 10:3 11:1 12:15 13:1 15:20 19:38.85 20:12.28 21:5856.79 22:0.16 23:93 24:0.08 25:325.38 26:477.02 27:0.33 28:2 29:4 30:14 31:0.1 32:26 33:67 34:18 35:17 36:29 37:1 38:13.04 39:20 
0.1194105109709846 1:17 2:29 4:19 5:53 6:50 7:15 8:0.22 9:22 10:1 11:0.07 12:55 13:9 14:0.57 15:50 16:2 19:50.79 20:25.26 21:32401.84 22:0.43 23:219 24:0.04 25:1800.1 26:1282.9 27:0.6 28:14 29:25 30:42 31:0.11 32:89 33:130 34:37 35:21 36:140 37:1 38:59.02 39:69 
0.11938750246753221 1:1 2:5 6:8 7:3 8:0.25 9:4 10:1 11:0.33 12:12 13:1 15:12 16:2 19:21.83 20:10.42 21:2369.07 22:0.08 23:51 24:0.1 25:131.62 26:227.43 27:0.33 28:2 29:4 30:11 31:0.21 32:25 33:26 34:12 35:10 36:14 37:1 39:12 
0.1194336695039 1:24 2:33 3:7 4:13 5:55 6:60 7:17 8:0.16 9:28 10:6 11:0.35 12:79 13:7 14:0.38 15:93 16:1 19:56.02 20:48.06 21:129374.54 22:0.9 23:407 24:0.02 25:7187.47 26:2692.19 27:0.41 28:16 29:30 30:64 31:0.09 32:173 33:234 34:63 35:35 36:186 37:1 38:42.24 39:106 
0.11943384940716917 1:24 2:37 3:6 5:18 6:52 7:19 8:0.28 9:20 10:13 11:0.68 12:68 13:19 14:1 15:69 19:73.61 20:37.75 21:104901.75 22:0.93 23:422 24:0.03 25:5827.87 26:2778.85 27:1 28:16 29:26 30:51 31:0.17 32:151 33:271 34:64 35:32 36:112 37:1 38:20.69 39:69 
0.1199015266715131 1:4 2:5 4:1 6:8 7:3 8:0.18 9:4 10:1 11:0.33 12:10 13:3 14:1 15:16 16:2 19:13.72 20:10.56 21:1531 22:0.05 23:33 24:0.09 25:85.06 26:144.95 27:1 28:2 29:4 30:9 31:0.14 32:13 33:20 34:8 35:13 36:22 37:1 38:5.88 39:17 
0.11990035745819705 1:5 2:5 6:8 7:3 8:0.15 9:4 10:1 11:0.33 12:9 13:1 15:20 16:2 19:10.03 20:14.67 21:2158.18 22:0.05 23:36 24:0.07 25:119.9 26:147.15 27:0.33 28:2 29:4 30:8 31:0.12 32:16 33:20 34:6 35:11 36:26 37:1 39:20 
0.11990035745819705 1:26 2:28 3:16 4:20 5:119 6:28 7:17 8:0.1 9:12 10:13 11:0.76 12:72 13:10 14:0.56 15:154 16:1 19:133.35 20:38.57 21:198396.43 22:1.71 23:695 24:0.03 25:11022.02 26:5143.61 27:0.59 28:8 29:14 30:57 31:0.05 32:285 33:410 34:133 35:36 36:320 37:1 38:47.44 39:174 
0.11988787083288538 1:6 2:31 3:3 4:1 5:19 6:54 7:16 8:0.22 9:24 10:7 11:0.44 12:61 13:9 14:0.53 15:72 16:6 19:86.16 20:18.26 21:28729.02 22:0.52 23:255 24:0.05 25:1596.06 26:1573.33 27:0.56 28:15 29:28 30:47 31:0.16 32:83 33:172 34:50 35:22 36:99 37:1 38:21.74 39:73 
0.11985189204190244 1:21 2:31 3:10 4:13 5:50 6:34 7:18 8:0.13 9:16 10:13 11:0.72 12:72 13:1 15:125 16:3 19:77.8 20:40.25 21:126046.47 22:1.04 23:438 24:0.02 25:7002.58 26:3131.59 27:0.06 28:9 29:17 30:56 31:0.07 32:168 33:270 34:96 35:46 36:254 37:1 38:33.51 39:138 
0.11919136265618502 2:1 5:4 7:1 8:0.17 10:1 11:1 12:1 13:1 15:6 19:16.39 20:3.5 21:200.76 22:0.02 23:16 24:0.29 25:11.15 26:57.36 27:1 30:2 31:0.09 32:5 33:11 34:5 35:7 36:11 37:1 38:40 39:6 
0.11985134637844447 1:6 2:9 3:2 5:17 6:16 7:5 8:0.17 9:8 10:2 11:0.4 12:21 13:1 15:29 16:2 19:27.4 20:20.78 21:11829.84 22:0.19 23:111 24:0.05 25:657.21 26:569.35 27:0.2 28:4 29:8 30:18 31:0.09 32:44 33:67 34:18 35:17 36:53 37:1 38:36.96 39:29 
0.11982825525583907 1:8 2:5 3:1 4:1 5:11 6:8 7:3 8:0.16 9:4 10:1 11:0.33 12:12 13:1 15:18 16:4 19:35.6 20:12.89 21:5919.2 22:0.15 23:91 24:0.08 25:328.84 26:459.04 27:0.33 28:2 29:4 30:11 31:0.05 32:35 33:56 34:19 35:14 36:57 37:1 38:40 39:19 
0.11978235223641354 1:17 2:21 3:7 5:8 6:36 7:11 8:0.2 9:16 10:8 11:0.73 12:53 13:5 14:0.4 15:55 16:4 19:48.89 20:26.83 21:35190.17 22:0.44 23:217 24:0.04 25:1955.01 26:1311.63 27:0.45 28:10 29:18 30:44 31:0.14 32:88 33:129 34:41 35:25 36:81 37:1 38:12.7 39:55 
0.11978235223641354 1:14 2:5 3:2 5:39 6:8 7:3 8:0.06 9:4 10:1 11:0.33 12:13 13:1 15:47 16:2 19:59.87 20:15.65 21:14671.27 22:0.31 23:150 24:0.06 25:815.07 26:937.19 27:0.33 28:2 29:4 30:12 31:0.02 32:82 33:68 34:55 35:21 36:121 37:1 38:45.35 39:47 
0.11977122973674237 1:10 2:11 3:2 4:2 5:14 6:20 7:6 8:0.18 9:10 10:2 11:0.33 12:25 13:4 14:0.6 15:32 16:1 19:21.82 20:22.85 21:11393.4 22:0.17 23:95 24:0.04 25:632.97 26:498.55 27:0.67 28:5 29:10 30:21 31:0.1 32:37 33:58 34:17 35:21 36:59 37:1 38:33.33 39:34 
0.11976984462206042 1:2 2:5 3:4 5:2 6:8 7:3 8:0.14 9:4 10:3 11:1 12:14 13:1 15:21 16:2 19:34.56 20:8.63 21:2570.73 22:0.1 23:62 24:0.12 25:142.82 26:298.06 27:0.33 28:2 29:4 30:13 31:0.12 32:23 33:39 34:16 35:12 36:26 37:1 38:8.7 39:21 
0.11947283128667374 1:4 2:3 5:1 6:4 7:2 8:0.14 9:2 10:1 11:0.5 12:6 13:1 15:14 16:3 19:12.74 20:7.86 21:786.33 22:0.03 23:24 24:0.13 25:43.68 26:100.08 27:0.5 28:1 29:2 30:6 31:0.1 32:10 33:14 34:7 35:11 36:20 37:1 38:6.67 39:14 
0.11975306436756356 1:6 2:5 3:6 5:6 6:8 7:3 8:0.14 9:4 10:3 11:1 12:15 13:1 15:21 16:2 19:40.4 20:11.25 21:5113.63 22:0.15 23:86 24:0.09 25:284.09 26:454.54 27:0.33 28:2 29:4 30:14 31:0.09 32:36 33:50 34:24 35:15 36:34 37:1 38:22.22 39:21 
0.11941035683399875 2:1 7:1 8:0.1 10:1 11:1 12:1 13:1 15:10 16:3 19:12.4 20:5.63 21:392.28 22:0.02 23:22 24:0.18 25:21.79 26:69.74 27:1 30:2 31:0.09 32:9 33:13 34:4 35:5 36:11 37:1 39:10 
0.051889946968153841 2:1 7:1 8:0.17 10:1 11:1 12:1 13:1 15:6 19:12.18 20:3 21:109.62 22:0.01 23:11 24:0.33 25:6.09 26:36.54 27:1 30:2 31:0.14 32:4 33:7 34:4 35:6 36:7 37:1 39:6 
0.11974041730801577 1:2 2:3 3:3 5:9 6:4 7:2 8:0.11 9:2 10:2 11:1 12:9 13:1 15:18 16:1 19:32 20:11.63 21:4329.68 22:0.12 23:72 24:0.09 25:240.54 26:372.23 27:0.5 28:1 29:2 30:9 31:0.07 32:26 33:46 34:19 35:17 36:30 37:1 38:33.33 39:18 
0.11973760882068535 1:3 2:6 3:5 4:2 5:13 6:4 7:4 8:0.11 9:2 10:4 11:1 12:30 13:1 15:36 19:48.31 20:17.63 21:15014.65 22:0.28 23:156 24:0.06 25:834.15 26:851.67 27:0.25 28:1 29:2 30:28 31:0.07 32:56 33:100 34:27 35:17 36:55 37:1 38:29.41 39:38 
0.11971936796468513 1:22 2:58 3:13 4:12 5:33 6:78 7:32 8:0.19 9:36 10:20 11:0.63 12:124 13:7 14:0.19 15:160 16:3 19:151.5 20:22.73 21:78244.98 22:1.15 23:488 24:0.04 25:4346.94 26:3442.98 27:0.22 28:21 29:39 30:94 31:0.14 32:163 33:325 34:104 35:29 36:228 37:1 38:21.95 39:172 
0.10607474824667346 2:1 7:1 8:0.08 10:1 11:1 12:1 13:1 15:12 16:4 19:37.64 20:2 21:150.57 22:0.03 23:21 24:0.5 25:8.36 26:75.28 27:1 30:2 31:0.08 32:8 33:13 34:8 35:4 36:13 37:1 39:12 
0.089704583305784999 2:1 7:1 8:0.11 10:1 11:1 12:1 13:1 15:9 19:34.69 20:2.67 21:246.7 22:0.03 23:25 24:0.38 25:13.71 26:92.51 27:1 30:2 31:0.1 32:12 33:13 34:9 35:4 36:10 37:1 39:9 
0.11983247348423298 2:1 7:1 8:0.17 10:1 11:1 12:1 13:1 15:6 19:12.85 20:3.5 21:157.4 22:0.01 23:13 24:0.29 25:8.74 26:44.97 27:1 30:2 31:0.14 32:4 33:9 34:4 35:7 36:7 37:1 39:6 
0.11971865718352348 2:1 7:1 8:0.08 10:1 11:1 12:1 13:1 15:12 16:4 19:33.12 20:3.33 21:368.04 22:0.04 23:29 24:0.3 25:20.45 26:110.41 27:1 30:2 31:0.08 32:12 33:17 34:9 35:5 36:13 37:1 39:12 
0.089479228323603707 2:1 7:1 8:0.08 10:1 11:1 12:1 13:1 15:12 16:4 19:34.69 20:2.67 21:246.7 22:0.03 23:25 24:0.38 25:13.71 26:92.51 27:1 30:2 31:0.08 32:12 33:13 34:9 35:4 36:13 37:1 39:12 
0.094492938407054514 2:1 7:1 8:0.17 10:1 11:1 12:1 13:1 15:6 19:7.75 20:2 21:31.02 22:0.01 23:6 24:0.5 25:1.72 26:15.51 27:1 30:2 31:0.14 32:2 33:4 34:2 35:4 36:7 37:1 39:6 
0.046779104931364779 2:1 7:1 8:0.17 10:1 11:1 12:1 13:1 15:6 19:5.8 20:2 21:23.22 23:5 24:0.5 25:1.29 26:11.61 27:1 30:2 31:0.14 32:1 33:4 34:1 35:4 36:7 37:1 39:6 
0.053729620898029684 2:1 7:1 8:0.17 10:1 11:1 12:1 13:1 15:6 19:7.86 20:2.5 21:49.13 22:0.01 23:7 24:0.4 25:2.73 26:19.65 27:1 30:2 31:0.14 32:2 33:5 34:2 35:5 36:7 37:1 39:6 
0.11921869821138187 2:1 5:4 7:1 8:0.17 10:1 11:1 12:1 13:1 15:6 19:10.8 20:2.5 21:67.5 22:0.01 23:9 24:0.4 25:3.75 26:27 27:1 30:2 31:0.09 32:3 33:6 34:3 35:5 36:11 37:1 38:40 39:6 
0.064619799584319182 2:1 7:1 8:0.17 10:1 11:1 12:1 13:1 15:6 19:11.23 20:2 21:44.92 22:0.01 23:8 24:0.5 25:2.5 26:22.46 27:1 30:2 31:0.14 32:3 33:5 34:3 35:4 36:7 37:1 39:6 
0.069451539316562727 2:1 7:1 8:0.17 10:1 11:1 12:1 13:1 15:6 19:5.33 20:1.5 21:12 23:4 24:0.67 25:0.67 26:8 27:1 30:2 31:0.14 32:1 33:3 34:1 35:3 36:7 37:1 39:6 
0.11927075030731743 2:3 6:4 7:2 8:0.15 9:2 10:1 11:0.5 12:6 13:1 15:13 19:21.15 20:3.5 21:259.02 22:0.02 23:20 24:0.29 25:14.39 26:74.01 27:0.5 28:1 29:2 30:6 31:0.14 32:6 33:14 34:6 35:7 36:14 37:1 39:13 
0.1085760713164462 2:1 5:3 7:1 8:0.17 10:1 11:1 12:1 13:1 15:6 19:10.57 20:3 21:95.1 22:0.01 23:10 24:0.33 25:5.28 26:31.7 27:1 30:2 31:0.1 32:3 33:7 34:3 35:6 36:10 37:1 38:33.33 39:6 
0.119556305109288 1:2 2:49 3:8 4:33 5:58 6:90 7:25 8:0.16 9:42 10:9 11:0.36 12:117 13:12 14:0.46 15:128 19:104.25 20:54.33 21:307757.08 22:1.89 23:790 24:0.02 25:17097.62 26:5664.24 27:0.48 28:24 29:45 30:94 31:0.11 32:326 33:464 34:108 35:36 36:233 37:1 38:41.55 39:161 
0.11938367058987076 1:4 2:9 6:16 7:5 8:0.25 9:8 10:1 11:0.2 12:19 13:1 15:20 16:1 19:13.75 20:21 21:6065.91 22:0.1 23:63 24:0.05 25:336.99 26:288.85 27:0.2 28:4 29:8 30:16 31:0.2 32:21 33:42 34:8 35:16 36:25 37:1 39:20 
0.11938001334905812 2:11 3:3 4:2 5:20 6:14 7:6 8:0.21 9:4 10:2 11:0.33 12:18 13:1 15:27 19:38.41 20:13.45 21:6946.75 22:0.17 23:92 24:0.07 25:385.93 26:516.54 27:0.17 28:5 29:7 30:14 31:0.12 32:39 33:53 34:29 35:20 36:49 37:1 38:44.9 39:29 
0.11936998951319061 2:1 5:16 7:1 8:0.33 10:1 11:1 12:1 13:1 15:3 19:9.6 20:2.5 21:60 22:0.01 23:8 24:0.4 25:3.33 26:24 27:1 30:2 31:0.05 32:3 33:5 34:3 35:5 36:20 37:1 38:84.21 39:3 
0.11936219871901521 1:8 2:19 3:4 4:6 5:7 6:32 7:10 8:0.19 9:14 10:7 11:0.7 12:54 13:9 14:0.89 15:47 19:105.02 20:18.86 21:37359.42 22:0.66 23:318 24:0.05 25:2075.52 26:1980.76 27:0.9 28:9 29:16 30:46 31:0.14 32:97 33:221 34:54 35:21 36:69 37:1 38:21.67 39:53 
0.11936219871848963 1:10 2:5 3:9 4:2 5:18 6:8 7:3 8:0.17 9:4 10:2 11:0.67 12:18 13:1 15:16 16:1 19:45.77 20:7.71 21:2723.97 22:0.12 23:70 24:0.13 25:151.33 26:353.11 27:0.33 28:2 29:4 30:17 31:0.04 32:27 33:43 34:21 35:12 36:71 37:1 38:55.56 39:18 
0.11930715420853238 1:5 2:1 3:2 7:1 8:0.07 10:1 11:1 12:10 13:1 15:15 19:34.23 20:5.25 21:943.51 22:0.06 23:46 24:0.19 25:52.42 26:179.72 27:1 30:11 31:0.05 32:21 33:25 34:10 35:5 36:21 37:1 39:15 
0.11927178816108852 1:5 2:1 3:1 5:6 7:1 8:0.08 10:1 11:1 12:2 13:1 15:13 19:19.24 20:15.5 21:4622.3 22:0.1 23:69 24:0.06 25:256.79 26:298.21 27:1 30:3 31:0.04 32:31 33:38 34:10 35:10 36:25 37:1 38:31.58 39:13 
0.11927075035352186 1:15 2:7 3:4 5:21 6:12 7:4 8:0.1 9:6 10:4 11:1 12:25 13:1 15:41 16:7 19:61.36 20:23.68 21:34405.27 22:0.48 23:247 24:0.04 25:1911.4 26:1453.01 27:0.25 28:3 29:6 30:23 31:0.05 32:117 33:130 34:42 35:17 36:78 37:1 38:33.87 39:41 
0.11936001724681694 1:4 2:3 4:3 6:4 7:2 8:0.12 9:2 10:1 11:0.5 12:6 13:1 15:14 16:2 19:16.29 20:9.29 21:1404.34 22:0.05 23:37 24:0.11 25:78.02 26:151.24 27:0.5 28:1 29:2 30:6 31:0.09 32:13 33:24 34:7 35:10 36:22 37:1 38:17.65 39:17 
0.11926105754221628 1:12 2:5 3:4 5:39 6:8 7:3 8:0.11 9:4 10:1 11:0.33 12:18 13:1 15:27 16:1 19:61.85 20:12.04 21:8964.95 22:0.25 23:130 24:0.08 25:498.05 26:744.63 27:0.33 28:2 29:4 30:17 31:0.04 32:61 33:69 34:38 35:15 36:79 37:1 38:59.09 39:27 
0.11926066744704489 1:3 2:3 3:2 4:6 5:6 6:4 7:2 8:0.07 9:2 10:2 11:1 12:8 13:1 15:21 16:2 19:22.83 20:23 21:12075 22:0.18 23:105 24:0.04 25:670.83 26:525 27:0.5 28:1 29:2 30:8 31:0.04 32:46 33:59 34:16 35:16 36:55 37:1 38:36.36 39:27 
0.11889140389143205 1:1 2:1 3:1 7:1 8:0.17 10:1 11:1 12:2 13:1 15:6 16:1 19:11.52 20:3.75 21:161.94 22:0.01 23:13 24:0.27 25:9 26:43.19 27:1 30:3 31:0.04 32:5 33:8 34:4 35:6 36:25 37:1 39:6 
0.11920181112736994 2:5 3:1 5:5 6:6 7:3 8:0.19 9:2 10:2 11:0.67 12:7 13:3 14:1 15:16 16:4 19:24.32 20:7.64 21:1418.49 22:0.06 23:40 24:0.13 25:78.8 26:185.75 27:1 28:2 29:3 30:6 31:0.14 32:12 33:28 34:11 35:14 36:22 37:1 38:23.81 39:16 
0.11920138798507651 1:10 2:17 3:3 4:12 5:20 6:32 7:9 8:0.13 9:16 10:3 11:0.33 12:46 13:1 15:55 16:4 19:52.18 20:33.32 21:57931.89 22:0.58 23:292 24:0.03 25:3218.44 26:1738.63 27:0.11 28:8 29:16 30:39 31:0.07 32:113 33:179 34:39 35:23 36:138 37:1 38:36.78 39:67 
0.11915333843071463 1:6 2:9 3:3 4:10 5:22 6:16 7:5 8:0.16 9:8 10:2 11:0.4 12:24 13:1 15:22 16:7 19:27.26 20:22.11 21:13319.21 22:0.2 23:114 24:0.05 25:739.96 26:602.54 27:0.2 28:4 29:8 30:21 31:0.08 32:42 33:72 34:19 35:20 36:61 37:1 38:59.26 39:32 
0.04261870769411906 2:1 7:1 8:0.17 10:1 11:1 12:1 13:1 15:6 19:7.74 20:1.5 21:17.41 23:5 24:0.67 25:0.97 26:11.61 27:1 30:2 31:0.14 32:2 33:3 34:2 35:3 36:7 37:1 39:6 
0.11935932346881728 1:1 2:1 7:1 8:0.11 10:1 11:1 12:1 13:1 15:9 16:1 19:27.24 20:2.29 21:142.33 22:0.02 23:18 24:0.44 25:7.91 26:62.27 27:1 30:2 31:0.09 32:8 33:10 34:7 35:4 36:11 37:1 39:9 
0.11907774026268053 1:6 2:47 3:2 4:1 5:58 6:80 7:25 8:0.18 9:40 10:24 11:0.96 12:112 13:1 15:138 16:1 19:171.89 20:27.21 21:127275.78 22:1.56 23:625 24:0.04 25:7070.88 26:4677.38 27:0.04 28:20 29:40 30:89 31:0.12 32:250 33:375 34:147 35:32 36:204 37:1 38:29.95 39:139 
0.10634644263536119 2:1 7:1 8:0.09 10:1 11:1 12:1 13:1 15:11 19:34.11 20:2.14 21:156.61 22:0.02 23:22 24:0.47 25:8.7 26:73.08 27:1 30:2 31:0.08 32:10 33:12 34:7 35:3 36:12 37:1 39:11 
0.11905748127534022 2:7 3:9 4:1 5:23 6:10 7:4 8:0.17 9:4 10:4 11:1 12:20 13:1 15:23 19:34.26 20:11.57 21:4586.97 22:0.13 23:75 24:0.09 25:254.83 26:396.41 27:0.25 28:3 29:5 30:18 31:0.08 32:27 33:48 34:21 35:18 36:48 37:1 38:51.06 39:24 
0.11900476105224894 1:1 2:1 3:3 5:9 7:1 8:0.06 10:1 11:1 12:5 13:1 15:17 16:1 19:57.09 20:3.88 21:860.54 22:0.07 23:49 24:0.26 25:47.81 26:221.65 27:1 30:6 31:0.04 32:22 33:27 34:17 35:6 36:28 37:1 38:34.62 39:17 
0.11940809126449908 2:19 3:5 4:4 5:15 6:16 7:13 8:0.2 9:8 10:6 11:0.46 12:42 13:1 15:60 16:1 19:66.12 20:13.9 21:12780.02 22:0.31 23:155 24:0.07 25:710 26:919.26 27:0.08 28:4 29:8 30:31 31:0.16 32:57 33:98 34:41 35:20 36:80 37:1 38:24.05 39:64 
0.11941662319256274 1:1 2:9 3:4 4:1 6:16 7:5 8:0.15 9:8 10:3 11:0.6 12:20 13:1 15:32 19:27.2 20:13.24 21:4764.71 22:0.12 23:72 24:0.08 25:264.71 26:360 27:0.2 28:4 29:8 30:17 31:0.14 32:30 33:42 34:17 35:15 36:35 37:1 38:3.03 39:33 
0.11939238200545238 1:1 2:5 3:5 5:11 6:8 7:3 8:0.11 9:4 10:3 11:1 12:13 13:1 15:28 16:2 19:47.22 20:11.69 21:6449.49 22:0.18 23:103 24:0.09 25:358.3 26:551.83 27:0.33 28:2 29:4 30:12 31:0.07 32:33 33:70 34:24 35:17 36:41 37:1 38:28.21 39:28 
0.11945134695485177 1:1 2:3 3:4 5:3 6:4 7:2 8:0.11 9:2 10:2 11:1 12:8 13:1 15:19 16:2 19:33.23 20:9.41 21:2943.55 22:0.1 23:62 24:0.11 25:163.53 26:312.75 27:0.5 28:1 29:2 30:8 31:0.08 32:20 33:42 34:17 35:16 36:24 37:1 38:13.64 39:19 
0.11936036783288734 1:2 2:3 3:4 5:3 6:4 7:2 8:0.11 9:2 10:2 11:1 12:8 13:1 15:19 16:2 19:31.71 20:8.91 21:2515.03 22:0.09 23:57 24:0.11 25:139.72 26:282.39 27:0.5 28:1 29:2 30:8 31:0.08 32:19 33:38 34:16 35:15 36:25 37:1 38:13.64 39:19 
0.1193354095737193 1:2 2:7 3:7 4:3 5:35 6:10 7:4 8:0.1 9:4 10:1 11:0.25 12:19 13:3 14:0.67 15:38 16:3 19:60.5 20:14.75 21:13163.37 22:0.3 23:153 24:0.07 25:731.3 26:892.43 27:0.75 28:3 29:5 30:17 31:0.05 32:59 33:94 34:38 35:19 36:79 37:1 38:50 39:41 
0.1193368109830853 1:14 2:3 3:14 5:7 6:4 7:2 8:0.05 9:2 10:2 11:1 12:19 13:1 15:41 16:1 19:93.81 20:15.69 21:23101.5 22:0.49 23:241 24:0.06 25:1283.42 26:1472.15 27:0.5 28:1 29:2 30:19 31:0.03 32:96 33:145 34:52 35:17 36:63 37:1 38:14.58 39:41 
0.11946080497821798 1:5 2:3 3:9 5:6 6:4 7:2 8:0.07 9:2 10:2 11:1 12:13 13:1 15:30 19:58.05 20:14.68 21:12512.17 22:0.28 23:151 24:0.07 25:695.12 26:852.22 27:0.5 28:1 29:2 30:13 31:0.05 32:57 33:94 34:33 35:17 36:42 37:1 38:16.67 39:30 
0.1194613433469891 1:10 2:29 3:8 4:2 5:65 6:56 7:15 8:0.1 9:28 10:6 11:0.4 12:74 13:11 14:0.71 15:149 16:6 19:118.83 20:46.92 21:261640.64 22:1.86 23:781 24:0.02 25:14535.59 26:5575.99 27:0.73 28:14 29:28 30:61 31:0.07 32:333 33:448 34:110 35:31 36:227 37:1 38:31.02 39:151 
0.11945264655049753 2:3 3:4 5:6 6:4 7:2 8:0.11 9:2 10:2 11:1 12:8 13:1 15:19 16:2 19:31.58 20:9.5 21:2850 22:0.1 23:60 24:0.11 25:158.33 26:300 27:0.5 28:1 29:2 30:8 31:0.08 32:19 33:41 34:16 35:16 36:26 37:1 38:24 39:19 
0.11942842189345632 1:1 2:3 3:4 5:6 6:4 7:2 8:0.05 9:2 10:2 11:1 12:8 13:1 15:42 19:94.81 20:13.88 21:18268.21 22:0.44 23:210 24:0.07 25:1014.9 26:1316.03 27:0.5 28:1 29:2 30:8 31:0.04 32:91 33:119 34:59 35:18 36:50 37:1 38:12.5 39:42 
0.11938750246753221 1:1 2:3 3:2 4:6 5:13 6:4 7:2 8:0.1 9:2 10:1 11:0.5 12:7 13:1 15:14 16:1 19:28.66 20:11.47 21:3771.09 22:0.11 23:67 24:0.09 25:209.5 26:328.76 27:0.5 28:1 29:2 30:7 31:0.06 32:30 33:37 34:17 35:13 36:35 37:1 38:57.58 39:20 
0.11898722433579678 1:1 2:3 3:5 5:12 6:4 7:2 8:0.09 9:2 10:2 11:1 12:9 13:1 15:22 16:1 19:36.77 20:11.48 21:4842.06 22:0.14 23:81 24:0.09 25:269 26:421.97 27:0.5 28:1 29:2 30:9 31:0.06 32:27 33:54 34:20 35:17 36:36 37:1 38:35.29 39:22 
0.11936219871848963 2:5 5:9 6:8 7:3 8:0.11 9:4 10:1 11:0.33 12:11 13:1 15:27 16:2 19:54.96 20:8.31 21:3793.04 22:0.15 23:87 24:0.12 25:210.72 26:456.57 27:0.33 28:2 29:4 30:10 31:0.08 32:36 33:51 34:26 35:12 36:37 37:1 38:25 39:27 
0.11945947217774378 2:1 7:1 8:0.13 10:1 11:1 12:1 13:1 15:8 16:2 19:12.33 20:7.2 21:639.44 22:0.03 23:24 24:0.14 25:35.52 26:88.81 27:1 30:2 31:0.11 32:9 33:15 34:5 35:8 36:9 37:1 39:8 
0.045808809297613162 2:1 7:1 8:0.14 10:1 11:1 12:1 13:1 15:7 16:1 19:13 20:3 21:117 22:0.01 23:13 24:0.33 25:6.5 26:39 27:1 30:2 31:0.13 32:6 33:7 34:4 35:4 36:8 37:1 39:7 
0.11978235223641343 1:1 2:9 4:1 5:4 6:16 7:5 8:0.16 9:8 10:1 11:0.2 12:18 13:1 15:31 16:2 19:14.28 20:19.94 21:5674.43 22:0.09 23:67 24:0.05 25:315.25 26:284.61 27:0.2 28:4 29:8 30:15 31:0.13 32:29 33:38 34:8 35:11 36:38 37:1 38:13.89 39:32 
0.11937547731968751 2:1 5:3 7:1 8:0.13 10:1 11:1 12:1 13:1 15:8 16:2 19:8.54 20:4.67 21:186.03 22:0.01 23:12 24:0.21 25:10.33 26:39.86 27:1 30:2 31:0.08 32:4 33:8 34:3 35:7 36:12 37:1 38:27.27 39:8 
0.11920138784005513 2:1 5:3 7:1 8:0.09 10:1 11:1 12:1 13:1 15:11 16:2 19:10.71 20:10.83 21:1256.67 22:0.04 23:29 24:0.09 25:69.81 26:116 27:1 30:2 31:0.07 32:13 33:16 34:6 35:10 36:15 37:1 38:21.43 39:11 
0.11944660396467793 2:1 5:3 7:1 8:0.33 10:1 11:1 12:1 13:1 15:3 23:3 26:4.75 27:1 30:2 31:0.14 33:3 35:3 36:7 37:1 38:50 39:3 
0.04020608080817311 2:1 3:1 7:1 8:0.33 10:1 11:1 12:2 13:1 15:3 19:7.74 20:1.5 21:17.41 23:5 24:0.67 25:0.97 26:11.61 27:1 30:3 31:0.25 32:2 33:3 34:2 35:3 36:4 37:1 39:3 
0.11381065543567234 2:1 3:1 7:1 8:0.25 10:1 11:1 12:2 13:1 15:4 19:13.5 20:2 21:54 22:0.01 23:9 24:0.5 25:3 26:27 27:1 30:3 31:0.2 32:4 33:5 34:4 35:4 36:5 37:1 39:4 
0.068915592252418167 2:1 3:1 7:1 8:0.33 10:1 11:1 12:2 13:1 15:3 19:5.33 20:1.5 21:12 23:4 24:0.67 25:0.67 26:8 27:1 30:3 31:0.25 32:1 33:3 34:1 35:3 36:4 37:1 39:3 
0.11907726159024828 2:1 5:9 7:1 8:0.25 10:1 11:1 12:1 13:1 15:4 23:3 26:4.75 27:1 30:2 31:0.14 33:3 35:3 36:7 37:1 38:69.23 39:4 
0.11990035745819699 1:5 2:19 3:5 4:7 5:39 6:34 7:10 8:0.07 9:16 10:8 11:0.8 12:61 13:8 14:0.78 15:127 16:18 19:124.12 20:29.01 21:104460.67 22:1.2 23:526 24:0.03 25:5803.37 26:3600.73 27:0.8 28:9 29:17 30:53 31:0.06 32:220 33:306 34:91 35:24 36:179 37:1 38:26.59 39:134 
0.11938750246753216 1:13 2:7 3:4 4:1 5:5 6:12 7:4 8:0.09 9:6 10:4 11:1 12:23 13:1 15:45 19:99.18 20:16.49 21:26973.57 22:0.55 23:261 24:0.06 25:1498.53 26:1635.63 27:0.25 28:3 29:6 30:21 31:0.06 32:94 33:167 34:57 35:20 36:65 37:1 38:11.76 39:46 
0.11935332814928501 1:67 2:29 3:10 4:27 5:41 6:56 7:15 8:0.13 9:28 10:15 11:1 12:76 13:15 14:1 15:92 16:2 19:46.37 20:57 21:150670.96 22:0.88 23:466 24:0.02 25:8370.61 26:2643.35 27:1 28:14 29:28 30:63 31:0.07 32:192 33:274 34:32 35:19 36:228 37:1 38:42.5 39:119 
0.11945025164004708 1:9 2:7 4:7 5:11 6:12 7:4 8:0.16 9:6 10:1 11:0.25 12:14 13:4 14:1 15:18 16:4 19:24 20:15.38 21:5680.1 22:0.12 23:76 24:0.07 25:315.56 26:369.21 27:1 28:3 29:6 30:12 31:0.09 32:25 33:51 34:13 35:16 36:46 37:1 38:50 39:25 
0.11941035563955049 1:15 2:11 3:4 4:9 5:22 6:20 7:6 8:0.13 9:10 10:6 11:1 12:30 13:1 15:36 16:3 19:46.84 20:21.46 21:21576.47 22:0.34 23:182 24:0.05 25:1198.69 26:1005.29 27:0.17 28:5 29:10 30:26 31:0.07 32:61 33:121 34:27 35:19 36:83 37:1 38:46.27 39:45 
0.093339160425960632 2:1 3:1 4:1 5:1 7:1 8:0.17 10:1 11:1 12:2 13:1 15:5 16:1 19:9.51 20:3 21:85.59 22:0.01 23:9 24:0.33 25:4.75 26:28.53 27:1 30:3 31:0.13 32:3 33:6 34:3 35:6 36:8 37:1 38:28.57 39:6 
0.11936014046689764 1:6 2:5 3:1 4:4 6:8 7:3 8:0.12 9:4 10:3 11:1 12:14 13:1 15:22 19:24.31 20:14.06 21:4807.12 22:0.11 23:69 24:0.07 25:267.06 26:341.84 27:0.33 28:2 29:4 30:13 31:0.09 32:30 33:39 34:16 35:15 36:33 37:1 38:15.38 39:26 
0.11933540957371941 1:21 2:7 3:4 4:10 5:22 6:12 7:4 8:0.1 9:6 10:2 11:0.5 12:19 13:1 15:30 16:2 19:45.35 20:25.34 21:29117.23 22:0.38 23:193 24:0.04 25:1617.62 26:1149.16 27:0.25 28:3 29:6 30:17 31:0.05 32:75 33:118 34:37 35:25 36:84 37:1 38:51.61 39:40 
0.069920223080682894 1:9 2:7 3:1 4:6 5:10 6:12 7:4 8:0.18 9:6 10:2 11:0.5 12:14 13:1 15:16 19:22.84 20:25.89 21:15315.78 22:0.2 23:109 24:0.04 25:850.88 26:591.46 27:0.25 28:3 29:6 30:12 31:0.1 32:41 33:68 34:19 35:24 36:42 37:1 38:50 39:22 
0.069920223080682978 1:10 2:7 3:1 4:7 5:10 6:12 7:4 8:0.18 9:6 10:2 11:0.5 12:14 13:1 15:15 19:22.84 20:25.89 21:15315.78 22:0.2 23:109 24:0.04 25:850.88 26:591.46 27:0.25 28:3 29:6 30:12 31:0.09 32:41 33:68 34:19 35:24 36:43 37:1 38:53.13 39:22 
0.11933715365370806 1:46 2:19 3:8 4:35 5:31 6:36 7:10 8:0.13 9:18 10:8 11:0.8 12:48 13:1 15:40 19:83.37 20:31.3 21:81653.73 22:0.87 23:399 24:0.03 25:4536.32 26:2609.12 27:0.1 28:9 29:18 30:40 31:0.07 32:153 33:246 34:66 35:27 36:153 37:1 38:62.26 39:75 
0.1193354095737193 1:8 2:3 3:2 4:8 5:14 7:2 8:0.1 10:1 11:0.5 12:9 13:1 15:12 16:3 19:33.99 20:15.21 21:7863.73 22:0.17 23:100 24:0.07 25:436.87 26:516.99 27:0.5 30:9 31:0.05 32:34 33:66 34:19 35:17 36:43 37:1 38:64.7 39:20 
0.11756420242296671 1:1 2:1 4:1 5:7 7:1 8:0.17 10:1 11:1 12:1 13:1 15:5 16:1 19:7.75 20:2 21:31.02 22:0.01 23:6 24:0.5 25:1.72 26:15.51 27:1 30:2 31:0.07 32:2 33:4 34:2 35:4 36:15 37:1 38:61.54 39:6 
0.11935841301699085 1:33 2:11 3:5 4:18 5:28 6:20 7:6 8:0.1 9:10 10:4 11:0.67 12:29 13:1 15:44 16:2 19:71.49 20:34.84 21:86774.3 22:0.83 23:380 24:0.03 25:4820.79 26:2490.74 27:0.17 28:5 29:10 30:25 31:0.05 32:135 33:245 34:62 35:32 36:124 37:1 38:51.11 39:62 
0.1193586128512546 1:10 2:9 3:1 4:5 6:16 7:5 8:0.14 9:8 10:5 11:1 12:32 13:1 15:31 19:44.36 20:16.56 21:12163.87 22:0.24 23:141 24:0.06 25:675.77 26:734.53 27:0.2 28:4 29:8 30:29 31:0.11 32:69 33:72 34:25 35:12 36:47 37:1 38:13.89 39:36 
0.11936014046689775 1:25 2:11 3:4 4:11 5:21 6:20 7:6 8:0.18 9:10 10:3 11:0.5 12:24 13:1 15:22 16:2 19:25.24 20:19.95 21:10047.02 22:0.17 23:94 24:0.05 25:558.17 26:503.61 27:0.17 28:5 29:10 30:20 31:0.08 32:38 33:56 34:20 35:21 36:80 37:1 38:59.26 39:33 
0.11940744914473228 1:9 2:7 3:4 4:2 5:13 6:12 7:4 8:0.18 9:6 10:4 11:1 12:16 13:1 15:20 19:46.13 20:14.44 21:9617.77 22:0.22 23:122 24:0.07 25:534.32 26:666.05 27:0.25 28:3 29:6 30:14 31:0.09 32:38 33:84 34:25 35:19 36:45 37:1 38:42.86 39:22 
0.11943515023992146 1:10 2:3 3:2 4:2 5:4 6:4 7:2 8:0.07 9:2 10:2 11:1 12:7 13:1 15:25 16:1 19:48.82 20:16.55 21:13373.72 22:0.27 23:148 24:0.06 25:742.98 26:808 27:0.5 28:1 29:2 30:7 31:0.05 32:64 33:84 34:29 35:15 36:42 37:1 38:19.35 39:27 
0.11941039613065046 1:6 2:3 3:1 4:5 5:4 6:4 7:2 8:0.13 9:2 10:1 11:0.5 12:6 13:1 15:10 16:4 19:21.05 20:9.8 21:2021.97 22:0.07 23:45 24:0.1 25:112.33 26:206.32 27:0.5 28:1 29:2 30:6 31:0.08 32:14 33:31 34:10 35:14 36:26 37:1 38:47.37 39:15 
0.11758111745963429 1:2 2:1 4:3 5:3 7:1 8:0.13 10:1 11:1 12:1 13:1 15:5 16:3 19:5.8 20:2 21:23.22 23:5 24:0.5 25:1.29 26:11.61 27:1 30:2 31:0.07 32:1 33:4 34:1 35:4 36:14 37:1 38:54.55 39:8 
0.11945618833372196 1:7 2:5 3:1 4:4 5:8 6:8 7:3 8:0.17 9:4 10:2 11:0.67 12:12 13:1 15:14 16:1 19:30.91 20:8.62 21:2294.05 22:0.09 23:56 24:0.12 25:127.45 26:266.27 27:0.33 28:2 29:4 30:11 31:0.09 32:16 33:40 34:13 35:14 36:34 37:1 38:46.15 39:18 
0.11944870245960892 1:20 2:11 3:4 4:4 5:16 6:18 7:6 8:0.19 9:8 10:5 11:0.83 12:22 13:3 14:0.4 15:27 16:4 19:53.81 20:14.9 21:11951.03 22:0.27 23:140 24:0.07 25:663.95 26:801.91 27:0.5 28:5 29:9 30:18 31:0.09 32:42 33:98 34:31 35:22 36:68 37:1 38:42.55 39:31 
0.11946213381706694 1:3 2:1 3:1 4:3 5:3 7:1 8:0.11 10:1 11:1 12:2 13:1 15:6 16:3 19:24.2 20:5 21:605.07 22:0.04 23:28 24:0.2 25:33.61 26:121.01 27:1 30:3 31:0.03 32:10 33:18 34:10 35:10 36:32 37:1 38:50 39:9 
0.11946086152167701 1:14 2:7 3:3 4:3 5:12 6:12 7:4 8:0.17 9:6 10:4 11:1 12:16 13:1 15:20 19:47.35 20:11.12 21:5850.56 22:0.18 23:97 24:0.09 25:325.03 26:526.35 27:0.25 28:3 29:6 30:14 31:0.08 32:34 33:63 34:26 35:17 36:50 37:1 38:42.86 39:23 
0.11944863191813088 1:19 2:13 3:4 4:4 5:18 6:20 7:7 8:0.22 9:8 10:5 11:0.71 12:24 13:5 14:0.67 15:28 16:4 19:55.58 20:14.56 21:11789.43 22:0.27 23:142 24:0.07 25:654.97 26:809.46 27:0.71 28:6 29:10 30:19 31:0.09 32:43 33:99 34:31 35:21 36:77 37:1 38:44 39:32 
0.11930363400917016 1:7 2:1 5:3 7:1 8:0.33 10:1 11:1 12:1 13:1 15:3 19:9.96 20:3.5 21:122.04 22:0.01 23:11 24:0.29 25:6.78 26:34.87 27:1 30:2 31:0.07 32:2 33:9 34:2 35:7 36:14 37:1 38:50 39:3 
0.11947283128668074 1:36 2:23 3:8 4:21 5:29 6:40 7:12 8:0.18 9:18 10:8 11:0.67 12:48 13:5 14:0.36 15:45 16:4 19:68.78 20:26.32 21:47644.35 22:0.6 23:288 24:0.04 25:2646.91 26:1810.2 27:0.42 28:11 29:20 30:38 31:0.08 32:94 33:194 34:50 35:28 36:143 37:1 38:52.63 39:66 
0.11935332814928512 1:22 2:1 3:5 5:21 7:1 8:0.03 10:1 11:1 12:20 13:1 15:34 16:1 19:73.78 20:17.29 21:22066.31 22:0.43 23:231 24:0.06 25:1225.91 26:1275.94 27:1 30:21 31:0.01 32:98 33:133 34:34 35:12 36:78 37:1 38:38.18 39:34 
0.11939135380716948 1:3 2:3 4:2 5:2 6:4 7:2 8:0.15 9:2 10:1 11:0.5 12:5 13:1 15:11 16:2 19:10.9 20:12 21:1569.59 22:0.04 23:32 24:0.08 25:87.2 26:130.8 27:0.5 28:1 29:2 30:5 31:0.11 32:10 33:22 34:5 35:12 36:19 37:1 38:26.67 39:13 
0.11937620924209702 1:3 2:3 4:2 5:2 6:4 7:2 8:0.15 9:2 10:1 11:0.5 12:5 13:1 15:11 16:2 19:17.29 20:12 21:2489.43 22:0.07 23:48 24:0.08 25:138.3 26:207.45 27:0.5 28:1 29:2 30:5 31:0.11 32:16 33:32 34:8 35:12 36:19 37:1 38:26.67 39:13 
0.11943200106270957 1:9 2:15 3:4 4:14 5:22 6:28 7:8 8:0.2 9:14 10:6 11:0.75 12:30 13:4 14:0.43 15:27 16:6 19:35.27 20:13.74 21:6655.21 22:0.16 23:93 24:0.07 25:369.73 26:484.48 27:0.5 28:7 29:14 30:24 31:0.11 32:29 33:64 34:19 35:18 36:73 37:1 38:57.14 39:41 
0.11944998885253544 1:5 2:3 3:1 4:4 5:12 6:4 7:2 8:0.14 9:2 10:2 11:1 12:5 13:1 15:10 16:3 19:15.6 20:6.67 21:693.33 22:0.03 23:26 24:0.15 25:38.52 26:104 27:0.5 28:1 29:2 30:5 31:0.06 32:8 33:18 34:6 35:10 36:32 37:1 38:61.54 39:14 
0.11937208895982343 1:1 2:3 4:3 5:3 6:4 7:2 8:0.17 9:2 10:1 11:0.5 12:5 13:1 15:9 16:3 19:13.38 20:8.25 21:910.48 22:0.04 23:27 24:0.12 25:50.58 26:110.36 27:0.5 28:1 29:2 30:5 31:0.12 32:9 33:18 34:6 35:11 36:17 37:1 38:40 39:12 
0.11945547339590928 1:1 2:3 4:3 5:3 6:4 7:2 8:0.17 9:2 10:1 11:0.5 12:5 13:1 15:9 16:3 19:20.27 20:9.17 21:1703.56 22:0.06 23:43 24:0.11 25:94.64 26:185.84 27:0.5 28:1 29:2 30:5 31:0.12 32:15 33:28 34:9 35:11 36:17 37:1 38:40 39:12 
0.11938750246753227 1:49 2:19 3:8 4:6 5:57 6:30 7:10 8:0.1 9:12 10:7 11:0.7 12:60 13:10 14:1 15:98 16:1 19:125.84 20:27.25 21:93428.15 22:1.14 23:486 24:0.04 25:5190.45 26:3428.87 27:1 28:9 29:15 30:52 31:0.05 32:172 33:314 34:101 35:32 36:211 37:1 38:39.13 39:104 
0.11898722433579689 1:77 2:49 3:9 4:20 5:56 6:94 7:25 8:0.13 9:46 10:24 11:0.96 12:137 13:15 14:0.58 15:172 16:4 19:243.12 20:22.99 21:128457.87 22:1.86 23:750 24:0.04 25:7136.55 26:5588.41 27:0.6 28:24 29:47 30:114 31:0.07 32:252 33:498 34:148 35:27 36:343 37:1 38:30.65 39:192 
0.11937620924376585 1:2 2:1 3:2 7:1 8:0.17 10:1 11:1 12:5 13:1 15:6 19:38.22 20:5.65 21:1221.78 22:0.07 23:50 24:0.18 25:67.88 26:216.1 27:1 30:6 31:0.11 32:21 33:29 34:13 35:7 36:9 37:1 39:6 
0.11915333843071452 1:31 2:7 3:7 4:1 5:29 6:12 7:4 8:0.09 9:6 10:4 11:1 12:33 13:1 15:43 19:84.37 20:19.2 21:31093.83 22:0.54 23:267 24:0.05 25:1727.43 26:1619.65 27:0.25 28:3 29:6 30:31 31:0.04 32:97 33:170 34:48 35:19 36:105 37:1 38:41.1 39:44 
0.11936998951319061 1:34 2:3 3:4 4:11 5:31 6:4 7:2 8:0.04 9:2 10:2 11:1 12:11 13:1 15:36 16:5 19:37.89 20:24.18 21:22153.96 22:0.31 23:171 24:0.04 25:1230.78 26:916.14 27:0.5 28:1 29:2 30:11 31:0.02 32:56 33:115 34:22 35:19 36:113 37:1 38:53.85 39:47 
0.11938001334905812 1:14 2:7 3:2 4:11 5:5 6:12 7:4 8:0.13 9:6 10:3 11:0.75 12:15 13:1 15:21 16:5 19:49.79 20:9.48 21:4476.07 22:0.16 23:87 24:0.11 25:248.67 26:472.09 27:0.25 28:3 29:6 30:13 31:0.08 32:32 33:55 34:27 35:16 36:52 37:1 38:43.24 39:32 
0.11933441395471284 1:2 2:1 4:2 5:7 7:1 8:0.13 10:1 11:1 12:1 13:1 15:6 16:1 19:17.89 20:5.14 21:473.14 22:0.03 23:23 24:0.19 25:26.29 26:92 27:1 30:2 31:0.06 32:8 33:15 34:7 35:9 36:18 37:1 38:60 39:8 
0.11400250038462743 1:1 2:1 4:2 7:1 8:0.14 10:1 11:1 12:1 13:1 15:5 16:1 19:11.51 20:4.5 21:233.13 22:0.02 23:14 24:0.22 25:12.95 26:51.81 27:1 30:2 31:0.11 32:4 33:10 34:4 35:9 36:9 37:1 38:28.57 39:7 
0.11577134397832789 1:1 2:1 4:3 7:1 8:0.13 10:1 11:1 12:1 13:1 15:5 16:2 19:11.85 20:4.5 21:239.86 22:0.02 23:14 24:0.22 25:13.33 26:53.3 27:1 30:2 31:0.1 32:5 33:9 34:5 35:9 36:10 37:1 38:37.5 39:8 
0.11938367058987071 1:5 2:1 4:5 7:1 8:0.08 10:1 11:1 12:1 13:1 15:8 16:2 19:20.02 20:8.13 21:1321.34 22:0.05 23:39 24:0.12 25:73.41 26:162.63 27:1 30:2 31:0.05 32:13 33:26 34:8 35:10 36:19 37:1 38:38.46 39:13 
0.11938627323618256 1:4 2:1 4:6 7:1 8:0.08 10:1 11:1 12:1 13:1 15:6 16:3 19:21.19 20:6.75 21:965.66 22:0.05 23:35 24:0.15 25:53.65 26:143.06 27:1 30:2 31:0.06 32:12 33:23 34:8 35:9 36:17 37:1 38:50 39:12 
0.11971865718352348 1:5 2:7 3:1 4:1 5:1 6:12 7:4 8:0.24 9:6 10:2 11:0.5 12:15 13:1 15:16 16:1 19:24.97 20:20.38 21:10375.62 22:0.17 23:97 24:0.05 25:576.42 26:509.05 27:0.25 28:3 29:6 30:13 31:0.17 32:33 33:64 34:17 35:21 36:24 37:1 38:11.11 39:17 
0.11978235223641348 1:4 2:5 3:2 5:7 6:8 7:3 8:0.21 9:4 10:3 11:1 12:12 13:1 15:14 16:1 19:16.78 20:11.2 21:2105.41 22:0.06 23:41 24:0.09 25:116.97 26:187.98 27:0.33 28:2 29:4 30:11 31:0.12 32:16 33:25 34:10 35:14 36:26 37:1 38:33.33 39:14 
0.11982825525583901 1:39 2:37 3:6 4:6 5:51 6:66 7:19 8:0.2 9:30 10:9 11:0.47 12:77 13:9 14:0.44 15:88 16:1 19:66.11 20:50.27 21:167072.98 22:1.11 23:496 24:0.02 25:9281.83 26:3323.42 27:0.47 28:18 29:33 30:60 31:0.1 32:207 33:289 34:70 35:34 36:185 37:1 38:39.31 39:94 
0.11990035745819699 1:18 2:6 3:6 4:7 5:6 6:4 7:4 8:0.11 9:2 10:3 11:0.75 12:16 13:1 15:29 16:3 19:49.27 20:18.53 21:16907.83 22:0.3 23:151 24:0.05 25:939.32 26:912.7 27:0.25 28:1 29:2 30:14 31:0.07 32:57 33:94 34:40 35:26 36:61 37:1 38:30.95 39:36 
0.11938750246753216 1:49 2:41 3:14 4:16 5:37 6:78 7:21 8:0.28 9:38 10:15 11:0.71 12:104 13:5 14:0.2 15:60 16:3 19:78.4 20:74.77 21:438244.07 22:1.95 23:821 24:0.01 25:24346.89 26:5861.57 27:0.24 28:20 29:39 30:85 31:0.13 32:319 33:502 34:96 35:45 36:163 37:1 38:46.9 39:76 
0.1193910025928574 1:31 2:19 3:5 4:12 5:25 6:34 7:10 8:0.16 9:16 10:6 11:0.6 12:41 13:3 14:0.22 15:52 16:2 19:47.49 20:47.96 21:109246.59 22:0.76 23:350 24:0.02 25:6069.25 26:2277.73 27:0.3 28:9 29:17 30:33 31:0.08 32:140 33:210 34:54 35:37 36:121 37:1 38:41.57 39:64 
0.11928335175623517 1:1 2:1 3:1 4:1 7:1 8:0.13 10:1 11:1 12:2 13:1 15:7 16:1 19:16.89 20:4.5 21:342 22:0.03 23:19 24:0.22 25:19 26:76 27:1 30:3 31:0.1 32:9 33:10 34:8 35:8 36:10 37:1 38:12.5 39:8 
0.11938512140091168 1:7 2:1 3:4 4:2 5:5 7:1 8:0.1 10:1 11:1 12:5 13:1 15:8 16:1 19:29.39 20:5 21:734.73 22:0.05 23:34 24:0.2 25:40.82 26:146.95 27:1 30:6 31:0.04 32:15 33:19 34:12 35:8 36:23 37:1 38:46.67 39:10 
0.11935930569298542 1:84 2:37 3:10 4:44 5:76 6:66 7:19 8:0.13 9:32 10:8 11:0.42 12:82 13:9 14:0.44 15:101 16:9 19:75.03 20:66 21:326814.89 22:1.65 23:685 24:0.02 25:18156.38 26:4951.74 27:0.47 28:17 29:33 30:65 31:0.06 32:264 33:421 34:100 35:50 36:306 37:1 38:54.3 39:145 
0.11935332814928507 1:17 2:15 3:3 4:28 5:6 6:28 7:8 8:0.14 9:14 10:6 11:0.75 12:37 13:1 15:29 19:78.29 20:48.05 21:180758.79 22:1.25 23:565 24:0.02 25:10042.15 26:3761.89 27:0.13 28:7 29:14 30:31 31:0.1 32:217 33:348 34:70 35:31 36:81 37:1 38:53.97 39:57 
0.1194595064467342 1:16 2:11 3:5 4:3 5:8 6:18 7:6 8:0.24 9:8 10:4 11:0.67 12:28 13:5 14:0.8 15:22 19:37.5 20:29.45 21:32535.15 22:0.37 23:187 24:0.03 25:1807.51 26:1104.59 27:0.83 28:5 29:9 30:24 31:0.12 32:72 33:115 34:33 35:27 36:50 37:1 38:33.33 39:25 
0.11945721442955853 1:6 2:1 3:2 4:3 5:4 7:1 8:0.04 10:1 11:1 12:3 13:1 15:20 16:1 19:61.55 20:8.25 21:4189.34 22:0.17 23:99 24:0.12 25:232.74 26:507.8 27:1 30:4 31:0.03 32:36 33:63 34:24 35:11 36:34 37:1 38:25.93 39:23 
0.11944580696256785 1:5 2:8 3:3 4:7 5:3 6:4 7:6 8:0.17 9:2 10:6 11:1 12:17 13:1 15:29 16:1 19:29.49 20:24 21:16987.59 22:0.24 23:133 24:0.04 25:943.76 26:707.82 27:0.17 28:1 29:2 30:13 31:0.13 32:48 33:85 34:20 35:20 36:45 37:1 38:25.64 39:36 
0.11943384931195694 1:2 2:1 3:1 7:1 8:0.11 10:1 11:1 12:2 13:1 15:9 16:1 19:16.02 20:7.14 21:817.49 22:0.04 23:28 24:0.14 25:45.42 26:114.45 27:1 30:3 31:0.08 32:10 33:18 34:7 35:10 36:12 37:1 39:9 
0.11941017424554246 1:1 2:7 3:1 4:1 6:8 7:4 8:0.25 9:2 10:2 11:0.5 12:11 13:4 14:1 15:15 16:1 19:22.03 20:12 21:3172.85 22:0.09 23:55 24:0.08 25:176.27 26:264.4 27:1 28:3 29:4 30:9 31:0.22 32:18 33:37 34:12 35:16 36:18 37:1 38:6.25 39:16 
0.11946134334698744 1:7 2:3 3:3 4:2 5:7 6:4 7:2 8:0.13 9:2 10:1 11:0.5 12:8 13:1 15:14 16:2 19:25.23 20:9.5 21:2277.36 22:0.08 23:51 24:0.11 25:126.52 26:239.72 27:0.5 28:1 29:2 30:8 31:0.06 32:19 33:32 34:13 35:13 36:31 37:1 38:39.13 39:16 
0.11936268752990647 1:1 2:4 7:3 8:0.14 10:1 11:0.33 12:8 13:1 15:22 16:4 19:26.81 20:8.03 21:1732.23 22:0.07 23:47 24:0.12 25:96.24 26:215.49 27:0.33 30:7 31:0.13 32:19 33:28 34:13 35:11 36:24 37:1 39:22 
0.11943399882007311 1:17 2:20 3:3 4:5 6:14 7:15 8:0.22 9:6 10:3 11:0.2 12:40 13:4 14:0.21 15:63 16:3 19:45.89 20:35.45 21:57670.7 22:0.54 23:262 24:0.03 25:3203.93 26:1626.88 27:0.27 28:4 29:7 30:27 31:0.17 32:79 33:183 34:39 35:35 36:86 37:1 38:7.35 39:68 
0.11933643842421604 1:3 2:3 4:2 5:1 6:8 7:2 8:0.18 9:4 10:1 11:0.5 12:5 13:1 15:9 16:2 19:24.7 20:7.22 21:1288.28 22:0.06 23:40 24:0.14 25:71.57 26:178.38 27:0.5 28:2 29:4 30:5 31:0.13 32:10 33:30 34:9 35:13 36:16 37:1 38:25 39:11 
0.11938576105883975 1:3 2:3 4:2 6:8 7:2 8:0.18 9:4 10:1 11:0.5 12:5 13:1 15:9 16:2 19:24.08 20:7.22 21:1256.07 22:0.06 23:39 24:0.14 25:69.78 26:173.92 27:0.5 28:2 29:4 30:5 31:0.13 32:10 33:29 34:9 35:13 36:15 37:1 38:18.18 39:11 
0.11898722433579689 1:6 2:7 3:3 4:1 5:1 6:8 7:4 8:0.22 9:2 10:2 11:0.5 12:12 13:1 15:17 16:1 19:25 20:13.6 21:4624 22:0.11 23:68 24:0.07 25:256.89 26:340 27:0.25 28:3 29:4 30:10 31:0.15 32:24 33:44 34:15 35:17 36:26 37:1 38:10.53 39:18 
0.11898722433579689 1:25 2:9 3:8 4:7 6:12 7:5 8:0.15 9:6 10:5 11:1 12:32 13:1 15:27 19:50.43 20:10.62 21:5682.29 22:0.18 23:102 24:0.09 25:315.68 26:535.29 27:0.2 28:3 29:6 30:29 31:0.08 32:46 33:56 34:26 35:12 36:60 37:1 38:20.59 39:34 
0.11898101721373544 1:7 2:8 3:2 7:7 8:0.19 10:7 11:1 12:25 13:1 15:37 16:1 19:35.81 20:12.33 21:5446.65 22:0.15 23:90 24:0.08 25:302.59 26:441.62 27:0.14 30:20 31:0.16 32:37 33:53 34:18 35:12 36:45 37:1 39:37 
0.11895717283847368 1:13 2:17 3:5 4:2 6:32 7:9 8:0.14 9:16 10:9 11:1 12:59 13:1 15:62 19:183.65 20:7.02 21:9044.12 22:0.43 23:214 24:0.14 25:502.45 26:1288.79 27:0.11 28:8 29:16 30:52 31:0.12 32:100 33:114 34:57 35:8 36:78 37:1 38:3.13 39:64 
0.11944576503344217 1:7 2:3 3:3 5:9 6:4 7:2 8:0.17 9:2 10:2 11:1 12:7 13:1 15:12 16:1 19:22.78 20:2.33 21:124.02 22:0.02 23:16 24:0.43 25:6.89 26:53.15 27:0.5 28:1 29:2 30:7 31:0.07 32:7 33:9 34:6 35:4 36:29 37:1 38:42.86 39:12 
0.11941718403899931 1:2 2:7 3:1 6:12 7:4 8:0.17 9:6 10:2 11:0.5 12:14 13:1 15:24 16:2 19:20.18 20:16.36 21:5403.6 22:0.11 23:73 24:0.06 25:300.2 26:330.22 27:0.25 28:3 29:6 30:12 31:0.15 32:30 33:43 34:11 35:12 36:27 37:1 39:24 
0.11943384940716917 1:5 2:5 3:2 4:4 6:8 7:3 8:0.18 9:4 10:3 11:1 12:16 13:1 15:13 19:25.58 20:13.2 21:4456.28 22:0.11 23:71 24:0.08 25:247.57 26:337.6 27:0.33 28:2 29:4 30:15 31:0.13 32:33 33:38 34:15 35:12 36:23 37:1 38:23.53 39:17 
0.11943384931527251 1:22 2:5 4:3 5:13 6:16 7:3 8:0.09 9:8 10:1 11:0.33 12:12 13:1 15:32 16:1 19:58.73 20:53.2 21:166215.79 22:1.04 23:538 24:0.02 25:9234.21 26:3124.36 27:0.33 28:4 29:8 30:11 31:0.04 32:266 33:272 34:40 35:16 36:71 37:1 38:33.33 39:35 
0.11938752119650187 1:1 2:3 3:4 6:4 7:2 8:0.2 9:2 10:2 11:1 12:9 13:1 15:10 19:22.35 20:7.27 21:1181.93 22:0.05 23:37 24:0.14 25:65.66 26:162.52 27:0.5 28:1 29:2 30:9 31:0.17 32:16 33:21 34:11 35:10 36:12 37:1 39:10 
0.11943372071418951 1:9 2:5 3:2 4:4 5:3 6:8 7:3 8:0.14 9:4 10:3 11:1 12:14 13:1 15:17 19:29.6 20:24.29 21:17460.6 22:0.24 23:137 24:0.04 25:970.03 26:718.97 27:0.33 28:2 29:4 30:13 31:0.09 32:60 33:77 34:21 35:17 36:34 37:1 38:29.17 39:21 
0.11898101707551306 1:1 2:3 6:4 7:2 8:0.29 9:2 10:1 11:0.5 12:5 13:1 15:7 16:1 19:8.79 20:12 21:1265.83 22:0.04 23:27 24:0.08 25:70.32 26:105.49 27:0.5 28:1 29:2 30:5 31:0.22 32:12 33:15 34:5 35:10 36:9 37:1 39:7 
0.11916612638564811 2:1 3:2 7:1 8:0.33 10:1 11:1 12:3 13:1 15:3 16:1 19:11.07 20:4.38 21:211.89 22:0.02 23:14 24:0.23 25:11.77 26:48.43 27:1 30:4 31:0.25 32:5 33:9 34:4 35:7 36:4 37:1 39:3 
0.11943392499700034 2:1 7:1 8:0.14 10:1 11:1 12:1 13:1 15:7 16:3 19:22.65 20:4.88 21:538.26 22:0.04 23:29 24:0.21 25:29.9 26:110.41 27:1 30:2 31:0.13 32:13 33:16 34:8 35:6 36:8 37:1 39:7 
0.1194105109709846 1:1 2:5 6:8 7:3 8:0.33 9:4 10:1 11:0.33 12:9 13:1 15:9 16:1 19:12.09 20:14.14 21:2417.96 22:0.06 23:41 24:0.07 25:134.33 26:170.97 27:0.33 28:2 29:4 30:8 31:0.27 32:18 33:23 34:7 35:11 36:11 37:1 39:9 
0.11938750246753221 1:1 2:5 6:8 7:3 8:0.27 9:4 10:1 11:0.33 12:9 13:1 15:11 16:2 19:14.67 20:14.67 21:3156.61 22:0.07 23:49 24:0.07 25:175.37 26:215.22 27:0.33 28:2 29:4 30:8 31:0.23 32:22 33:27 34:9 35:12 36:13 37:1 39:11 
0.081508426191220354 2:1 7:1 8:0.25 10:1 11:1 12:1 13:1 15:4 16:1 19:13 20:3 21:117 22:0.01 23:13 24:0.33 25:6.5 26:39 27:1 30:2 31:0.2 32:6 33:7 34:4 35:4 36:5 37:1 39:4 
0.04427228316833158 2:1 7:1 8:0.33 10:1 11:1 12:1 13:1 15:3 16:1 19:7.86 20:2.5 21:49.13 22:0.01 23:7 24:0.4 25:2.73 26:19.65 27:1 30:2 31:0.25 32:2 33:5 34:2 35:5 36:4 37:1 39:3 
0.11938750246753471 1:40 2:11 3:4 4:25 5:13 6:16 7:6 8:0.08 9:8 10:4 11:0.67 12:27 13:5 14:0.8 15:48 16:1 19:71.01 20:24.77 21:43561.75 22:0.59 23:279 24:0.04 25:2420.1 26:1758.75 27:0.83 28:4 29:8 30:23 31:0.04 32:107 33:172 34:54 35:25 36:151 37:1 38:44.19 39:73 
0.11926066741131947 1:2 2:3 3:2 5:2 6:4 7:2 8:0.29 9:2 10:2 11:1 12:6 13:1 15:7 19:16.52 20:6.19 21:632.28 22:0.03 23:25 24:0.16 25:35.13 26:102.19 27:0.5 28:1 29:2 30:6 31:0.17 32:11 33:14 34:8 35:9 36:12 37:1 38:22.22 39:7 
0.1193823949782134 1:8 2:7 4:2 5:14 6:10 7:4 8:0.24 9:4 10:1 11:0.25 12:11 13:3 14:0.67 15:15 19:17.03 20:14.68 21:3670.2 22:0.08 23:52 24:0.07 25:203.9 26:249.98 27:0.75 28:3 29:5 30:9 31:0.17 32:19 33:33 34:11 35:17 36:23 37:1 38:51.61 39:17 
0.11940470209159998 1:1 2:1 7:1 8:0.5 10:1 11:1 12:1 13:1 15:2 23:1 27:1 30:2 31:0.09 33:1 35:1 36:11 37:1 39:2 
0.11904414137939312 1:8 2:1 5:12 7:1 8:0.33 10:1 11:1 12:1 13:1 15:3 23:1 27:1 30:2 31:0.13 33:1 35:1 36:8 37:1 38:80 39:3 
0.11700754147223619 1:3 2:1 4:2 7:1 8:0.17 10:1 11:1 12:1 13:1 15:4 19:5.8 20:2 21:23.22 23:5 24:0.5 25:1.29 26:11.61 27:1 30:2 31:0.05 32:1 33:4 34:1 35:4 36:19 37:1 38:33.33 39:6 
0.11969345124275182 1:2 2:3 5:8 6:4 7:2 8:0.22 9:2 10:1 11:0.5 12:6 13:1 15:9 19:11.86 20:4.38 21:227.03 22:0.02 23:15 24:0.23 25:12.61 26:51.89 27:0.5 28:1 29:2 30:6 31:0.22 32:5 33:10 34:4 35:7 36:9 37:1 38:47.06 39:9 
0.11907774008885241 1:3 2:3 5:5 6:4 7:2 8:0.25 9:2 10:1 11:0.5 12:5 13:1 15:8 19:17.16 20:6.19 21:657.1 22:0.04 23:25 24:0.16 25:36.51 26:106.2 27:0.5 28:1 29:2 30:5 31:0.12 32:9 33:16 34:8 35:11 36:17 37:1 38:38.46 39:8 
0.11934298737323989 1:4 2:3 5:10 6:4 7:2 8:0.25 9:2 10:1 11:0.5 12:5 13:1 15:8 19:11.07 20:4.38 21:211.89 22:0.02 23:14 24:0.23 25:11.77 26:48.43 27:0.5 28:1 29:2 30:5 31:0.18 32:5 33:9 34:4 35:7 36:11 37:1 38:55.56 39:8 
0.11944023965198952 1:3 2:3 3:2 5:2 6:4 7:2 8:0.22 9:2 10:2 11:1 12:6 13:1 15:9 19:19.71 20:5.5 21:596.3 22:0.04 23:26 24:0.18 25:33.13 26:108.42 27:0.5 28:1 29:2 30:6 31:0.13 32:11 33:15 34:9 35:9 36:15 37:1 38:18.18 39:9 
0.11937684655855374 1:13 2:5 3:3 4:4 5:19 6:8 7:3 8:0.18 9:4 10:2 11:0.67 12:17 13:1 15:13 19:22.53 20:13.93 21:4371.1 22:0.1 23:66 24:0.07 25:242.84 26:313.82 27:0.33 28:2 29:4 30:16 31:0.06 32:30 33:36 34:14 35:13 36:50 37:1 38:63.89 39:17 
0.087090051472847999 2:1 3:2 7:1 8:0.25 10:1 11:1 12:3 13:1 15:4 19:10.84 20:1.5 21:24.38 22:0.01 23:7 24:0.67 25:1.35 26:16.25 27:1 30:4 31:0.2 32:2 33:5 34:2 35:3 36:5 37:1 39:4 
0.11937853272346555 1:9 2:17 3:4 6:32 7:9 8:0.38 9:16 10:8 11:0.89 12:34 13:1 15:24 19:30.54 20:11.65 21:4143.37 22:0.12 23:74 24:0.09 25:230.19 26:355.74 27:0.11 28:8 29:16 30:27 31:0.26 32:36 33:38 34:17 35:11 36:34 37:1 39:24 
0.11938050845395681 1:16 2:7 3:3 5:15 6:12 7:4 8:0.16 9:6 10:3 11:0.75 12:15 13:1 15:25 19:21.39 20:22.46 21:10795.37 22:0.16 23:97 24:0.04 25:599.74 26:480.56 27:0.25 28:3 29:6 30:13 31:0.07 32:37 33:60 34:14 35:17 36:57 37:1 38:37.5 39:25 
0.11939238200545232 1:82 2:43 3:12 4:6 5:100 6:74 7:23 8:0.13 9:36 10:17 11:0.74 12:117 13:15 14:0.64 15:176 16:5 19:140.31 20:37.2 21:194194.61 22:1.74 23:696 24:0.03 25:10788.59 26:5219.89 27:0.65 28:19 29:37 30:96 31:0.06 32:280 33:416 34:143 35:38 36:390 37:1 38:37.59 39:182 
0.11939110769390404 1:22 2:7 3:4 4:9 5:31 6:12 7:4 8:0.1 9:6 10:3 11:0.75 12:19 13:1 15:32 16:6 19:45.51 20:16.36 21:12184.85 22:0.25 23:130 24:0.06 25:676.94 26:744.63 27:0.25 28:3 29:6 30:17 31:0.04 32:54 33:76 34:33 35:20 36:95 37:1 38:55.56 39:41 
0.1193698728655711 1:9 2:3 3:5 5:12 6:4 7:2 8:0.11 9:2 10:2 11:1 12:10 13:1 15:18 16:1 19:35.45 20:10.29 21:3750.81 22:0.12 23:70 24:0.1 25:208.38 26:364.66 27:0.5 28:1 29:2 30:10 31:0.05 32:27 33:43 34:21 35:16 36:40 37:1 38:40 39:18 
0.11937511676347823 1:12 2:5 3:1 4:3 5:4 6:8 7:3 8:0.18 9:4 10:2 11:0.67 12:10 13:3 14:1 15:14 19:15.83 20:13.82 21:3022.38 22:0.07 23:46 24:0.07 25:167.91 26:218.72 27:1 28:2 29:4 30:9 31:0.09 32:19 33:27 34:11 35:16 36:34 37:1 38:33.33 39:17 
0.1194295146396786 1:14 2:7 3:4 4:4 5:21 6:10 7:4 8:0.12 9:4 10:3 11:0.75 12:16 13:3 14:0.67 15:29 16:2 19:39.73 20:19.35 21:14882.34 22:0.26 23:133 24:0.05 25:826.8 26:768.92 27:0.75 28:3 29:5 30:14 31:0.04 32:50 33:83 34:31 35:24 36:95 37:1 38:46.3 39:33 
0.11945698206373134 1:38 2:35 3:4 4:5 5:70 6:58 7:18 8:0.17 9:24 10:7 11:0.39 12:67 13:13 14:0.71 15:104 16:2 19:58.36 20:41.38 21:99929.77 22:0.8 23:372 24:0.02 25:5551.65 26:2414.97 27:0.72 28:17 29:29 30:51 31:0.08 32:150 33:222 34:58 35:32 36:218 37:1 38:41.9 39:109 
0.11945080369418254 1:39 2:23 3:10 4:4 5:58 6:40 7:12 8:0.17 9:18 10:7 11:0.58 12:49 13:5 14:0.36 15:68 16:5 19:52.05 20:21.71 21:24543.69 22:0.38 23:187 24:0.05 25:1363.54 26:1130.3 27:0.42 28:11 29:20 30:39 31:0.07 32:76 33:111 34:42 35:24 36:177 37:1 38:47.69 39:72 
0.11895570489964225 1:2 2:1 3:1 4:1 7:1 8:0.13 10:1 11:1 12:2 13:1 15:7 16:2 19:9.05 20:2 21:36.19 22:0.01 23:7 24:0.5 25:2 26:18.09 27:1 30:3 31:0.09 32:2 33:5 34:2 35:4 36:11 37:1 38:12.5 39:8 
0.11944263675234829 1:19 2:7 3:3 4:4 5:16 6:12 7:4 8:0.16 9:6 10:4 11:1 12:16 13:1 15:21 19:31.79 20:17.86 21:10140.57 22:0.19 23:104 24:0.06 25:563.36 26:567.78 27:0.25 28:3 29:6 30:14 31:0.05 32:47 33:57 34:25 35:19 36:84 37:1 38:48.78 39:25 
0.11945264655060139 1:1 2:3 3:1 6:4 7:2 8:0.2 9:2 10:2 11:1 12:6 13:1 15:10 19:10.75 20:7 21:526.99 22:0.03 23:21 24:0.14 25:29.28 26:75.28 27:0.5 28:1 29:2 30:6 31:0.17 32:7 33:14 34:4 35:8 36:12 37:1 39:10 
0.11945134816879965 1:34 2:17 3:9 4:5 5:26 6:30 7:9 8:0.13 9:14 10:7 11:0.78 12:44 13:4 14:0.38 15:66 16:5 19:76.03 20:28.98 21:63864.99 22:0.73 23:342 24:0.03 25:3548.06 26:2203.49 27:0.44 28:8 29:15 30:37 31:0.07 32:136 33:206 34:61 35:26 36:132 37:1 38:31.96 39:71 
0.088935385681116225 1:2 2:1 7:1 8:0.33 10:1 11:1 12:1 13:1 15:3 19:9.83 20:2 21:39.3 22:0.01 23:7 24:0.5 25:2.18 26:19.65 27:1 30:2 31:0.17 32:3 33:4 34:3 35:4 36:6 37:1 39:3 
0.11938532576867189 1:13 2:5 3:2 4:9 5:7 6:8 7:3 8:0.11 9:4 10:3 11:1 12:10 13:1 15:19 19:37.6 20:9.75 21:3574.45 22:0.12 23:74 24:0.1 25:198.58 26:366.61 27:0.33 28:2 29:4 30:9 31:0.06 32:27 33:47 34:18 35:13 36:49 37:1 38:45.71 39:28 
0.057061534257625293 2:1 7:1 8:0.14 10:1 11:1 12:1 13:1 15:7 16:1 19:9.96 20:3.5 21:122.04 22:0.01 23:11 24:0.29 25:6.78 26:34.87 27:1 30:2 31:0.13 32:2 33:9 34:2 35:7 36:8 37:1 39:7 
0.097718431559890018 2:1 7:1 8:0.13 10:1 11:1 12:1 13:1 15:8 16:2 19:10.44 20:3.5 21:127.89 22:0.01 23:11 24:0.29 25:7.11 26:36.54 27:1 30:2 31:0.11 32:3 33:8 34:3 35:7 36:9 37:1 39:8 
0.032674154904000434 2:1 7:1 8:0.13 10:1 11:1 12:1 13:1 15:8 16:2 19:12.18 20:3 21:109.62 22:0.01 23:11 24:0.33 25:6.09 26:36.54 27:1 30:2 31:0.11 32:4 33:7 34:4 35:6 36:9 37:1 39:8 
0.11938664093759233 1:3 2:3 3:2 6:4 7:2 8:0.11 9:2 10:1 11:0.5 12:8 13:1 15:19 16:2 19:24.71 20:10.58 21:2764.2 22:0.09 23:57 24:0.09 25:153.57 26:261.33 27:0.5 28:1 29:2 30:8 31:0.09 32:25 33:32 34:13 35:11 36:23 37:1 39:19 
0.11936922502248748 1:6 2:3 3:1 4:1 5:6 6:4 7:2 8:0.18 9:2 10:1 11:0.5 12:6 13:1 15:10 16:1 19:16.21 20:5.4 21:472.87 22:0.03 23:23 24:0.19 25:26.27 26:87.57 27:0.5 28:1 29:2 30:6 31:0.08 32:6 33:17 34:5 35:9 36:24 37:1 38:41.18 39:11 
0.11938588613183088 1:3 2:1 5:1 7:1 8:0.09 10:1 11:1 12:1 13:1 15:11 16:1 19:24.87 20:6.25 21:971.37 22:0.05 23:42 24:0.16 25:53.96 26:155.42 27:1 30:2 31:0.06 32:20 33:22 34:8 35:5 36:16 37:1 38:8.33 39:11 
0.11803043343617939 1:1 2:1 3:1 7:1 8:0.11 10:1 11:1 12:2 13:1 15:9 16:2 19:13.71 20:5 21:342.66 22:0.02 23:18 24:0.2 25:19.04 26:68.53 27:1 30:3 31:0.09 32:4 33:14 34:4 35:10 36:11 37:1 39:9 
0.11006128451283964 2:1 7:1 8:0.14 10:1 11:1 12:1 13:1 15:7 16:2 19:11.07 20:3 21:99.66 22:0.01 23:10 24:0.33 25:5.54 26:33.22 27:1 30:2 31:0.13 32:4 33:6 34:4 35:6 36:8 37:1 39:7 
0.11940929144823609 1:2 2:1 5:1 7:1 8:0.13 10:1 11:1 12:1 13:1 15:8 16:2 19:27.4 20:7 21:1342.72 22:0.06 23:46 24:0.14 25:74.6 26:191.82 27:1 30:2 31:0.08 32:14 33:32 34:9 35:9 36:12 37:1 38:11.11 39:8 
0.11938524656869193 1:3 2:3 6:4 7:2 8:0.13 9:2 10:1 11:0.5 12:6 13:1 15:15 16:2 19:18.54 20:9.63 21:1717.22 22:0.06 23:42 24:0.1 25:95.4 26:178.41 27:0.5 28:1 29:2 30:6 31:0.11 32:14 33:28 34:8 35:11 36:19 37:1 39:15 
0.11937376085872003 1:6 2:3 3:3 4:4 5:15 6:4 7:2 8:0.14 9:2 10:2 11:1 12:8 13:1 15:10 16:3 19:16.21 20:10.56 21:1809.36 22:0.06 23:39 24:0.09 25:100.52 26:171.3 27:0.5 28:1 29:2 30:8 31:0.06 32:13 33:26 34:8 35:13 36:36 37:1 38:65.51 39:14 
0.10130292107278194 2:1 7:1 8:0.17 10:1 11:1 12:1 13:1 15:6 16:1 19:9 20:3 21:81 22:0.01 23:9 24:0.33 25:4.5 26:27 27:1 30:2 31:0.14 32:2 33:7 34:2 35:6 36:7 37:1 39:6 
0.11939016316356427 1:12 2:11 3:5 4:1 5:16 6:20 7:6 8:0.13 9:10 10:6 11:1 12:30 13:1 15:44 16:3 19:46.89 20:18.91 21:16764.79 22:0.3 23:152 24:0.05 25:931.38 26:886.6 27:0.17 28:5 29:10 30:26 31:0.08 32:52 33:100 34:33 35:24 36:74 37:1 38:27.87 39:45 
0.11935088885270376 1:6 2:1 5:2 7:1 8:0.13 10:1 11:1 12:1 13:1 15:8 16:1 19:22.46 20:6.19 21:859.9 22:0.05 23:34 24:0.16 25:47.77 26:138.97 27:1 30:2 31:0.06 32:11 33:23 34:8 35:9 36:17 37:1 38:20 39:8 
0.11939135380716964 2:3 6:4 7:2 8:0.13 9:2 10:1 11:0.5 12:6 13:1 15:15 16:2 19:42.88 20:6.87 21:2026.77 22:0.1 23:62 24:0.15 25:112.6 26:294.8 27:0.5 28:1 29:2 30:6 31:0.13 32:20 33:42 34:16 35:11 36:16 37:1 39:15 
1 2:1 7:1 8:0.14 10:1 11:1 12:1 13:1 15:7 16:1 19:21.8 20:5.63 21:689.76 22:0.04 23:30 24:0.18 25:38.32 26:122.62 27:1 30:2 31:0.13 32:10 33:20 34:8 35:9 36:8 37:1 39:7 
0.11940389634676335 1:1 2:1 7:1 8:0.17 10:1 11:1 12:1 13:1 15:6 16:1 19:16.93 20:6 21:609.47 22:0.03 23:26 24:0.17 25:33.86 26:101.58 27:1 30:2 31:0.13 32:8 33:18 34:6 35:9 36:8 37:1 39:6 
0.11938091006446622 1:11 2:1 3:4 5:12 7:1 8:0.08 10:1 11:1 12:10 13:1 15:12 19:45.34 20:4.23 21:811.53 22:0.06 23:46 24:0.24 25:45.09 26:191.82 27:1 30:11 31:0.03 32:22 33:24 34:13 35:5 36:36 37:1 38:50 39:12 
0.11936001166982363 1:2 2:3 3:1 4:2 6:4 7:2 8:0.14 9:2 10:2 11:1 12:6 13:1 15:12 16:2 19:20.76 20:2.5 21:129.72 22:0.02 23:15 24:0.4 25:7.21 26:51.89 27:0.5 28:1 29:2 30:6 31:0.12 32:6 33:9 34:6 35:5 36:17 37:1 38:14.29 39:14 
0.11946080497821701 1:4 2:5 3:1 4:4 6:8 7:3 8:0.14 9:4 10:3 11:1 12:10 13:1 15:17 16:2 19:34.27 20:2.78 21:264.4 22:0.03 23:25 24:0.36 25:14.69 26:95.18 27:0.33 28:2 29:4 30:9 31:0.12 32:10 33:15 34:9 35:5 36:26 37:1 38:19.05 39:21 
0.11939257713085422 2:7 6:12 7:4 8:0.24 9:6 10:1 11:0.25 12:14 13:3 14:0.67 15:17 16:2 19:10.6 20:10.13 21:1086.54 22:0.04 23:29 24:0.1 25:60.36 26:107.31 27:0.75 28:3 29:6 30:12 31:0.22 32:9 33:20 34:4 35:9 36:18 37:1 39:17 
0.11935446435811908 1:3 2:11 6:16 7:6 8:0.4 9:6 10:1 11:0.17 12:18 13:4 14:0.6 15:15 16:2 19:7.45 20:30.8 21:7065.15 22:0.08 23:54 24:0.03 25:392.51 26:229.39 27:0.67 28:5 29:8 30:14 31:0.32 32:22 33:32 34:5 35:14 36:19 37:1 39:15 
0.11935332814928507 1:3 2:3 6:4 7:2 8:0.14 9:2 10:1 11:0.5 12:5 13:1 15:14 16:2 19:11.85 20:9 21:959.45 22:0.04 23:28 24:0.11 25:53.3 26:106.61 27:0.5 28:1 29:2 30:5 31:0.11 32:10 33:18 34:5 35:9 36:18 37:1 39:14 
0.11945080369394373 1:2 2:3 6:4 7:2 8:0.2 9:2 10:1 11:0.5 12:5 13:1 15:10 16:1 19:6.92 20:8 21:442.81 22:0.02 23:16 24:0.13 25:24.6 26:55.35 27:0.5 28:1 29:2 30:5 31:0.15 32:6 33:10 34:3 35:8 36:13 37:1 39:10 
0.11936001724683148 1:25 2:25 3:6 4:6 5:15 6:42 7:13 8:0.17 9:18 10:9 11:0.69 12:59 13:7 14:0.5 15:70 16:1 19:80.81 20:26.6 21:57176.91 22:0.72 23:343 24:0.04 25:3176.49 26:2149.51 27:0.54 28:12 29:23 30:48 31:0.11 32:133 33:210 34:55 35:22 36:117 37:1 38:23.08 39:76 
0.11942784176560134 1:5 2:7 3:3 4:3 5:2 6:12 7:4 8:0.15 9:6 10:4 11:1 12:17 13:1 15:24 16:2 19:26.32 20:16 21:6737.71 22:0.14 23:85 24:0.06 25:374.32 26:421.11 27:0.25 28:3 29:6 30:15 31:0.11 32:30 33:55 34:15 35:16 36:35 37:1 38:17.24 39:27 
0.11937782564699134 1:5 2:1 4:3 5:2 7:1 8:0.11 10:1 11:1 12:1 13:1 15:6 16:3 19:14.52 20:5.79 21:486 22:0.03 23:21 24:0.17 25:27 26:84 27:1 30:2 31:0.06 32:9 33:12 34:7 35:9 36:17 37:1 38:45.45 39:9 
0.11947283128668079 1:15 2:5 3:1 4:7 5:9 6:8 7:3 8:0.16 9:4 10:2 11:0.67 12:10 13:1 15:12 16:1 19:28.99 20:18.12 21:9514.39 22:0.18 23:106 24:0.06 25:528.58 26:525.14 27:0.33 28:2 29:4 30:9 31:0.07 32:44 33:62 34:17 35:14 36:44 37:1 38:57.14 39:19 
0.11941334321455756 1:3 2:1 4:2 5:1 7:1 8:0.14 10:1 11:1 12:1 13:1 15:5 16:2 19:9.83 20:2 21:39.3 22:0.01 23:7 24:0.5 25:2.18 26:19.65 27:1 30:2 31:0.08 32:3 33:4 34:3 35:4 36:12 37:1 38:37.5 39:7 
0.11975306435244532 1:5 2:1 4:4 5:2 7:1 8:0.08 10:1 11:1 12:1 13:1 15:8 16:4 19:17.66 20:10.63 21:1993.75 22:0.06 23:45 24:0.09 25:110.76 26:187.65 27:1 30:2 31:0.05 32:17 33:28 34:8 35:10 36:20 37:1 38:42.86 39:12 
0.11988787083128311 1:6 2:3 4:2 5:2 6:4 7:2 8:0.18 9:2 10:1 11:0.5 12:5 13:1 15:9 16:1 19:13.77 20:13.5 21:2508.88 22:0.06 23:43 24:0.07 25:139.38 26:185.84 27:0.5 28:1 29:2 30:5 31:0.1 32:18 33:25 34:8 35:12 36:20 37:1 38:30.77 39:11 
0.11947553939531319 1:5 2:3 4:2 5:2 6:4 7:2 8:0.18 9:2 10:1 11:0.5 12:5 13:1 15:9 16:2 19:13.64 20:17.06 21:3972.03 22:0.08 23:53 24:0.06 25:220.67 26:232.79 27:0.5 28:1 29:2 30:5 31:0.11 32:21 33:32 34:8 35:13 36:19 37:1 38:30.77 39:11 
0.1193260119875762 1:5 2:1 4:3 5:2 7:1 8:0.11 10:1 11:1 12:1 13:1 15:6 16:3 19:14.4 20:3 21:129.56 22:0.01 23:13 24:0.33 25:7.2 26:43.19 27:1 30:2 31:0.06 32:6 33:7 34:5 35:5 36:17 37:1 38:45.45 39:9 
0.11938469208064834 1:3 2:1 4:2 5:1 7:1 8:0.11 10:1 11:1 12:1 13:1 15:7 16:1 19:12.85 20:8 21:822.39 22:0.03 23:27 24:0.13 25:45.69 26:102.8 27:1 30:2 31:0.07 32:12 33:15 34:6 35:8 36:14 37:1 38:30 39:9 
0.11946134387409557 1:10 2:13 4:15 5:2 6:22 7:7 8:0.3 9:10 10:1 11:0.14 12:23 13:1 15:8 16:4 19:21.3 20:16.32 21:5681.26 22:0.12 23:74 24:0.06 25:315.63 26:347.83 27:0.14 28:6 29:11 30:18 31:0.19 32:28 33:46 34:12 35:14 36:36 37:1 38:68 39:23 
0.11946591224200837 1:14 2:5 3:4 4:1 5:9 6:8 7:3 8:0.15 9:4 10:3 11:1 12:13 13:1 15:19 16:1 19:35.6 20:10.11 21:3640 22:0.12 23:72 24:0.1 25:202.22 26:360 27:0.33 28:2 29:4 30:12 31:0.07 32:26 33:46 34:18 35:14 36:44 37:1 38:34.48 39:20 
0.11945469751969795 1:35 2:31 3:9 4:28 5:17 6:52 7:16 8:0.15 9:22 10:11 11:0.69 12:68 13:10 14:0.6 15:76 16:5 19:108.35 20:33.87 21:124313.16 22:1.22 23:526 24:0.03 25:6906.29 26:3670.05 27:0.63 28:15 29:26 30:54 31:0.1 32:199 33:327 34:94 35:32 36:157 37:1 38:37.19 39:104 
0.11933676280205879 1:6 2:5 3:1 4:7 5:2 6:8 7:3 8:0.2 9:4 10:2 11:0.67 12:11 13:1 15:8 19:17.71 20:10.67 21:2014.61 22:0.06 23:43 24:0.09 25:111.92 26:188.87 27:0.33 28:2 29:4 30:10 31:0.13 32:16 33:27 34:9 35:12 36:24 37:1 38:52.94 39:15 
0.11945707702931646 1:17 2:9 3:4 4:8 5:19 6:16 7:5 8:0.14 9:8 10:4 11:0.8 12:23 13:1 15:27 19:42.9 20:20.7 21:18381.79 22:0.3 23:159 24:0.05 25:1021.21 26:888.01 27:0.2 28:4 29:8 30:20 31:0.07 32:45 33:114 34:25 35:23 36:72 37:1 38:50 39:35 
0.11945436289128097 1:16 2:5 3:1 4:10 5:7 6:8 7:3 8:0.1 9:4 10:2 11:0.67 12:11 13:1 15:20 16:1 19:37.71 20:30.2 21:34384.39 22:0.38 23:205 24:0.03 25:1910.24 26:1138.69 27:0.33 28:2 29:4 30:10 31:0.06 32:89 33:116 34:28 35:19 36:54 37:1 38:45.95 39:30 
0.11945127890502577 1:11 2:11 3:1 4:14 5:5 6:20 7:6 8:0.15 9:10 10:2 11:0.33 12:26 13:1 15:27 16:1 19:48.56 20:33.51 21:54539.1 22:0.54 23:279 24:0.03 25:3029.95 26:1627.38 27:0.17 28:5 29:10 30:22 31:0.1 32:124 33:155 34:37 35:20 36:58 37:1 38:41.3 39:41 
0.11945110443883206 1:81 2:162 3:8 4:80 5:165 6:248 7:96 8:0.19 9:118 10:63 11:0.66 12:345 13:27 14:0.27 15:423 16:3 19:131.72 20:126.56 21:2109679.5 22:5.56 23:2027 24:0.01 25:117204.41 26:16670.05 27:0.28 28:65 29:124 30:251 31:0.13 32:798 33:1229 34:227 35:72 36:750 37:1 38:36.68 39:503 
0.11943515023992102 1:20 2:7 3:2 4:2 5:2 6:12 7:4 8:0.33 9:6 10:3 11:0.75 12:12 13:1 15:10 16:1 19:19.23 20:5.69 21:622.17 22:0.04 23:28 24:0.18 25:34.57 26:109.39 27:0.25 28:3 29:6 30:10 31:0.11 32:13 33:15 34:8 35:7 36:35 37:1 38:28.57 39:12 
0.11940132439939538 1:115 2:31 3:3 4:35 5:12 6:60 7:16 8:0.19 9:30 10:3 11:0.19 12:67 13:10 14:0.6 15:49 16:1 19:83.81 20:31.06 21:80843.05 22:0.87 23:399 24:0.03 25:4491.28 26:2602.9 27:0.63 28:15 29:30 30:53 31:0.08 32:176 33:223 34:68 35:24 36:212 37:1 38:48.96 39:84 
0.11946086152167701 1:156 2:63 3:5 4:53 5:27 6:116 7:32 8:0.23 9:54 10:10 11:0.31 12:129 13:12 14:0.35 15:85 16:1 19:78.34 20:51.47 21:207526.23 22:1.34 23:589 24:0.02 25:11529.23 26:4031.99 27:0.38 28:31 29:58 30:99 31:0.1 32:267 33:322 34:83 35:32 36:330 37:1 38:48.48 39:138 
0.11946619424349536 1:48 2:57 3:11 4:61 5:32 6:106 7:29 8:0.13 9:50 10:22 11:0.76 12:161 13:27 14:0.93 15:165 16:3 19:204.29 20:41.72 21:355647.88 22:2.84 23:1112 24:0.02 25:19758.22 26:8523.85 27:0.93 28:28 29:53 30:134 31:0.09 32:463 33:649 34:172 35:31 36:307 37:1 38:36.05 39:226 
0.11945618833372368 1:17 2:21 3:5 4:6 5:8 6:38 7:11 8:0.16 9:18 10:10 11:0.91 12:44 13:7 14:0.6 15:61 16:3 19:87.92 20:17.2 21:26010.73 22:0.5 23:253 24:0.06 25:1445.04 26:1512.25 27:0.64 28:10 29:19 30:35 31:0.12 32:86 33:167 34:45 35:18 36:93 37:1 38:18.67 39:67 
0.119456477263084 1:74 2:23 3:10 4:30 5:18 6:42 7:12 8:0.13 9:20 10:10 11:0.83 12:64 13:3 14:0.18 15:63 16:3 19:85.71 20:38.23 21:125251.55 22:1.09 23:487 24:0.03 25:6958.42 26:3276.5 27:0.25 28:11 29:21 30:54 31:0.06 32:203 33:284 34:77 35:29 36:186 37:1 38:43.24 39:93 
0.11946216459425585 1:33 2:5 3:4 4:8 5:4 6:8 7:3 8:0.13 9:4 10:3 11:1 12:14 13:1 15:16 16:3 19:28.18 20:15.16 21:6475.08 22:0.14 23:82 24:0.07 25:359.73 26:427.18 27:0.33 28:2 29:4 30:13 31:0.05 32:32 33:50 34:19 35:18 36:62 37:1 38:42.86 39:24 
0.11945292027008597 1:4 2:7 3:1 4:3 6:12 7:4 8:0.18 9:6 10:4 11:1 12:25 13:1 15:19 16:2 19:40.01 20:18.29 21:13377.17 22:0.24 23:134 24:0.05 25:743.18 26:731.56 27:0.25 28:3 29:6 30:23 31:0.15 32:64 33:70 34:28 35:16 36:27 37:1 38:13.64 39:22 
0.1194406009847126 1:4 2:11 3:1 4:3 6:20 7:6 8:0.21 9:10 10:6 11:1 12:38 13:1 15:25 16:2 19:42.36 20:23.73 21:23858.84 22:0.34 23:182 24:0.04 25:1325.49 26:1005.29 27:0.17 28:5 29:10 30:34 31:0.18 32:89 33:93 34:30 35:16 36:33 37:1 38:10.71 39:28 
0.11943575118679001 1:1 2:9 3:1 4:1 6:16 7:5 8:0.14 9:8 10:5 11:1 12:32 13:1 15:35 16:1 19:110.24 20:10.11 21:11259.34 22:0.37 23:191 24:0.1 25:625.52 26:1114.08 27:0.2 28:4 29:8 30:29 31:0.13 32:95 33:96 34:47 35:10 36:38 37:1 38:2.78 39:36 
0.11943794222944015 2:1 3:1 7:1 8:0.07 10:1 11:1 12:13 13:1 15:14 19:70.78 20:2.77 21:542.77 22:0.07 23:49 24:0.36 25:30.15 26:196 27:1 30:14 31:0.07 32:24 33:25 34:13 35:3 36:15 37:1 39:14 
0.11943403262459323 1:5 2:9 3:1 4:2 6:16 7:5 8:0.19 9:8 10:4 11:0.8 12:24 13:1 15:25 16:1 19:27.4 20:20.16 21:11135.5 22:0.18 23:100 24:0.05 25:618.64 26:552.36 27:0.2 28:4 29:8 30:21 31:0.15 32:48 33:52 34:25 35:21 36:33 37:1 38:7.41 39:27 
0.11941273738310404 1:2 2:9 3:2 4:1 6:16 7:5 8:0.16 9:8 10:5 11:1 12:41 13:1 15:30 16:1 19:78 20:13.61 21:14437.64 22:0.35 23:189 24:0.07 25:802.09 26:1061.18 27:0.2 28:4 29:8 30:38 31:0.15 32:94 33:95 34:38 35:11 36:34 37:1 38:3.23 39:31 
0.11941192929083594 1:1 2:3 3:1 4:1 6:4 7:2 8:0.11 9:2 10:2 11:1 12:16 13:1 15:17 16:1 19:54.5 20:9.27 21:4686.53 22:0.17 23:103 24:0.11 25:260.36 26:505.41 27:0.5 28:1 29:2 30:16 31:0.1 32:51 33:52 34:22 35:8 36:20 37:1 38:5.56 39:18 
0.11941035563955033 1:1 2:7 3:1 4:1 6:12 7:4 8:0.25 9:6 10:4 11:1 12:20 13:1 15:15 16:1 19:20.45 20:13.07 21:3491.27 22:0.09 23:55 24:0.08 25:193.96 26:267.19 27:0.25 28:3 29:6 30:18 31:0.22 32:28 33:27 34:15 35:14 36:18 37:1 38:6.25 39:16 
0.1194124588283223 1:1 2:16 3:1 4:1 6:8 7:13 8:0.26 9:4 10:13 11:1 12:36 13:1 15:49 16:1 19:35.91 20:21.53 21:16649.11 22:0.26 23:132 24:0.05 25:924.95 26:773.25 27:0.08 28:2 29:4 30:25 31:0.25 32:53 33:79 34:32 35:26 36:52 37:1 38:2 39:50 
0.11941179053164691 1:1 2:18 3:1 4:1 6:12 7:14 8:0.26 9:6 10:14 11:1 12:39 13:1 15:52 16:1 19:36.57 20:23.03 21:19394.56 22:0.28 23:142 24:0.04 25:1077.48 26:842.16 27:0.07 28:3 29:6 30:27 31:0.25 32:58 33:84 34:34 35:27 36:55 37:1 38:1.89 39:53 
0.11940746942399816 1:4 2:13 3:2 4:1 6:24 7:7 8:0.16 9:12 10:7 11:1 12:47 13:1 15:42 16:1 19:160.8 20:10.16 21:16586.02 22:0.54 23:263 24:0.1 25:921.45 26:1633.09 27:0.14 28:6 29:12 30:42 31:0.15 32:130 33:133 34:64 35:10 36:48 37:1 38:2.33 39:43 
0.11940517716894128 1:16 2:25 3:5 4:5 5:8 6:42 7:13 8:0.19 9:18 10:10 11:0.77 12:48 13:9 14:0.67 15:62 16:3 19:84.92 20:18.79 21:29993.03 22:0.53 23:265 24:0.05 25:1666.28 26:1595.93 27:0.69 28:12 29:23 30:37 31:0.14 32:91 33:174 34:46 35:19 36:92 37:1 38:17.33 39:67 
0.11940475261528344 1:40 2:25 3:10 4:30 5:19 6:46 7:13 8:0.14 9:22 10:10 11:0.77 12:69 13:3 14:0.17 15:65 16:3 19:83.84 20:41.66 21:145477.36 22:1.16 23:514 24:0.02 25:8082.08 26:3492.33 27:0.23 28:12 29:23 30:58 31:0.08 32:215 33:299 34:80 35:31 36:155 37:1 38:42.98 39:95 
0.11940301671380127 1:77 2:33 3:9 4:25 5:15 6:62 7:17 8:0.17 9:30 10:11 11:0.65 12:87 13:9 14:0.5 15:75 16:3 19:88.15 20:36.04 21:114516.56 22:1.06 23:465 24:0.03 25:6362.03 26:3177.29 27:0.53 28:16 29:31 30:72 31:0.08 32:193 33:272 34:83 35:31 36:201 37:1 38:34.78 39:100 
0.11936950977644406 1:4 2:3 3:1 4:4 6:4 7:2 8:0.14 9:2 10:1 11:0.5 12:6 13:1 15:10 19:23.58 20:12.5 21:3685.04 22:0.1 23:62 24:0.08 25:204.72 26:294.8 27:0.5 28:1 29:2 30:6 31:0.11 32:20 33:42 34:12 35:15 36:19 37:1 38:28.57 39:14 
0.05361615073634992 2:1 7:1 8:0.33 10:1 11:1 12:1 13:1 15:3 19:5.8 20:2 21:23.22 23:5 24:0.5 25:1.29 26:11.61 27:1 30:2 31:0.25 32:1 33:4 34:1 35:4 36:4 37:1 39:3 
0.11944655659815845 1:3 2:1 4:2 5:2 7:1 8:0.11 10:1 11:1 12:1 13:1 15:7 16:2 19:17.27 20:2.5 21:107.96 22:0.01 23:13 24:0.4 25:6 26:43.19 27:1 30:2 31:0.07 32:5 33:8 34:5 35:5 36:15 37:1 38:36.36 39:9 
0.10904938835081457 1:3 2:1 4:1 7:1 8:0.25 10:1 11:1 12:1 13:1 15:3 19:10.57 20:3 21:95.1 22:0.01 23:10 24:0.33 25:5.28 26:31.7 27:1 30:2 31:0.13 32:3 33:7 34:3 35:6 36:8 37:1 38:25 39:4 
0.11905334224344966 1:3 2:1 4:1 7:1 8:0.25 10:1 11:1 12:1 13:1 15:3 19:10.8 20:2.5 21:67.5 22:0.01 23:9 24:0.4 25:3.75 26:27 27:1 30:2 31:0.13 32:3 33:6 34:3 35:5 36:8 37:1 38:25 39:4 
0.11941031661577611 1:4 2:3 3:1 4:2 5:6 6:4 7:2 8:0.25 9:2 10:2 11:1 12:5 13:1 15:6 19:17.91 20:6.29 21:707.7 22:0.04 23:27 24:0.16 25:39.32 26:112.59 27:0.5 28:1 29:2 30:5 31:0.11 32:8 33:19 34:7 35:11 36:19 37:1 38:57.14 39:8 
0.1193629416526471 1:5 2:1 3:1 4:1 5:7 7:1 8:0.14 10:1 11:1 12:2 13:1 15:6 16:1 19:14.38 20:4.5 21:291.26 22:0.02 23:17 24:0.22 25:16.18 26:64.73 27:1 30:3 31:0.05 32:5 33:12 34:5 35:9 36:20 37:1 38:57.14 39:7 
0.11933720864123259 1:5 2:1 3:1 4:1 5:7 7:1 8:0.14 10:1 11:1 12:2 13:1 15:6 16:1 19:14.8 20:4 21:236.83 22:0.02 23:16 24:0.25 25:13.16 26:59.21 27:1 30:3 31:0.05 32:5 33:11 34:5 35:8 36:20 37:1 38:57.14 39:7 
0.11936055824708031 1:7 2:3 3:1 5:7 6:4 7:2 8:0.13 9:2 10:1 11:0.5 12:7 13:1 15:15 16:1 19:17.24 20:10.64 21:1950.69 22:0.06 23:40 24:0.09 25:108.37 26:183.4 27:0.5 28:1 29:2 30:7 31:0.07 32:18 33:22 34:11 35:13 36:30 37:1 38:31.82 39:15 
0.11943366890708196 1:5 2:1 3:1 5:3 7:1 8:0.11 10:1 11:1 12:2 13:1 15:9 16:1 19:16.32 20:5.14 21:432 22:0.03 23:21 24:0.19 25:24 26:84 27:1 30:3 31:0.06 32:8 33:13 34:7 35:9 36:18 37:1 38:25 39:9 
0.11936014046689775 1:16 2:1 3:5 4:1 5:19 7:1 8:0.05 10:1 11:1 12:6 13:1 15:20 16:1 19:39.36 20:16 21:10076.02 22:0.21 23:120 24:0.06 25:559.78 26:629.75 27:1 30:7 31:0.02 32:44 33:76 34:22 35:16 36:57 37:1 38:50 39:21 
0.051247494457582601 2:1 7:1 8:0.33 10:1 11:1 12:1 13:1 15:3 19:7.24 20:2.5 21:45.24 22:0.01 23:7 24:0.4 25:2.51 26:18.09 27:1 30:2 31:0.25 32:1 33:6 34:1 35:5 36:4 37:1 39:3 
0.11935583182785553 1:7 2:1 3:1 5:4 7:1 8:0.06 10:1 11:1 12:3 13:1 15:16 16:1 19:26.67 20:15.32 21:6261.24 22:0.14 23:88 24:0.07 25:347.85 26:408.66 27:1 30:4 31:0.04 32:39 33:49 34:14 35:11 36:28 37:1 38:20 39:16 
0.1170054838088852 1:2 2:1 4:1 5:1 7:1 8:0.17 10:1 11:1 12:1 13:1 15:5 16:1 19:7.74 20:1.5 21:17.41 23:5 24:0.67 25:0.97 26:11.61 27:1 30:2 31:0.1 32:2 33:3 34:2 35:3 36:10 37:1 38:28.57 39:6 
0.11938511933980289 1:1 2:1 4:3 5:1 7:1 8:0.14 10:1 11:1 12:1 13:1 15:4 16:1 19:12.68 20:3.75 21:178.31 22:0.02 23:15 24:0.27 25:9.91 26:47.55 27:1 30:2 31:0.1 32:6 33:9 34:4 35:5 36:10 37:1 38:50 39:7 
0.11943129374651668 1:2 2:1 3:1 4:4 5:5 7:1 8:0.11 10:1 11:1 12:2 13:1 15:5 16:1 19:16.78 20:6.29 21:663.06 22:0.04 23:27 24:0.16 25:36.84 26:105.49 27:1 30:3 31:0.06 32:11 33:16 34:7 35:8 36:17 37:1 38:64.29 39:9 
0.1194283552187137 1:3 2:3 3:1 4:2 5:5 6:4 7:2 8:0.18 9:2 10:1 11:0.5 12:7 13:1 15:9 16:1 19:17.13 20:10 21:1713 22:0.06 23:39 24:0.1 25:95.17 26:171.3 27:0.5 28:1 29:2 30:7 31:0.1 32:15 33:24 34:9 35:12 36:20 37:1 38:43.75 39:11 
0.1192509295276748 1:2 2:4 4:4 7:3 8:0.14 10:1 11:0.33 12:8 13:1 15:18 16:4 19:26.81 20:8.03 21:1732.23 22:0.07 23:47 24:0.12 25:96.24 26:215.49 27:0.33 30:7 31:0.12 32:19 33:28 34:13 35:11 36:25 37:1 38:18.18 39:22 
0.1193586128512546 1:27 2:13 3:4 4:4 5:33 6:6 7:10 8:0.24 9:2 10:4 11:0.4 12:25 13:4 14:0.33 15:38 16:3 19:32 20:26.1 21:21802.25 22:0.28 23:142 24:0.04 25:1211.24 26:835.34 27:0.4 28:2 29:3 30:17 31:0.1 32:54 33:88 34:30 35:29 36:103 37:1 38:49.33 39:42 
0.11935841301699091 1:6 2:11 4:2 5:2 6:16 7:6 8:0.38 9:6 10:1 11:0.17 12:18 13:5 14:0.8 15:14 16:2 19:15.76 20:17.6 21:4880.94 22:0.09 23:59 24:0.06 25:271.16 26:277.33 27:0.83 28:5 29:8 30:14 31:0.24 32:22 33:37 34:10 35:16 36:25 37:1 38:22.22 39:16 
0.11934070196776225 1:20 2:21 3:2 4:7 5:14 6:22 7:13 8:0.24 9:10 10:2 11:0.15 12:44 13:3 14:0.17 15:47 16:2 19:30.99 20:27.86 21:24047.21 22:0.29 23:150 24:0.04 25:1335.96 26:863.23 27:0.23 28:6 29:11 30:33 31:0.15 32:60 33:90 34:28 35:26 36:89 37:1 38:30.88 39:54 
0.11765119749779701 1:4 2:3 5:1 6:4 7:2 8:0.18 9:2 10:1 11:0.5 12:5 13:1 15:11 16:2 19:20.51 20:6.11 21:765.94 22:0.04 23:29 24:0.16 25:42.55 26:125.34 27:0.5 28:1 29:2 30:5 31:0.12 32:10 33:19 34:9 35:11 36:17 37:1 38:8.33 39:11 
0.11939100220134718 1:5 2:3 5:2 6:4 7:2 8:0.18 9:2 10:1 11:0.5 12:5 13:1 15:11 16:2 19:19.8 20:6.11 21:739.53 22:0.04 23:28 24:0.16 25:41.08 26:121.01 27:0.5 28:1 29:2 30:5 31:0.11 32:10 33:18 34:9 35:11 36:19 37:1 38:15.38 39:11 
0.11939135380715499 1:3 2:3 3:1 4:1 5:2 6:4 7:2 8:0.17 9:2 10:1 11:0.5 12:6 13:1 15:11 16:1 19:14.83 20:9.63 21:1373.5 22:0.05 23:32 24:0.1 25:76.31 26:142.7 27:0.5 28:1 29:2 30:6 31:0.11 32:11 33:21 34:8 35:14 36:18 37:1 38:21.43 39:12 
0.11693561643142059 1:7 2:7 3:1 4:3 5:7 6:12 7:4 8:0.17 9:6 10:4 11:1 12:14 13:4 14:1 15:21 16:1 19:46.9 20:10.5 21:5170.32 22:0.16 23:96 24:0.1 25:287.24 26:492.41 27:1 28:3 29:6 30:12 31:0.1 32:28 33:68 34:20 35:15 36:39 37:1 38:32.25 39:24 
0.11695052762833313 1:7 2:7 3:1 4:1 5:5 6:12 7:4 8:0.17 9:6 10:4 11:1 12:14 13:4 14:1 15:23 16:1 19:46.9 20:10.5 21:5170.32 22:0.16 23:96 24:0.1 25:287.24 26:492.41 27:1 28:3 29:6 30:12 31:0.11 32:28 33:68 34:20 35:15 36:37 37:1 38:20.69 39:24 
0.11944246736437442 2:5 3:2 6:8 7:3 8:0.23 9:4 10:3 11:1 12:10 13:1 15:13 16:1 19:33.1 20:7.26 21:1746.71 22:0.08 23:49 24:0.14 25:97.04 26:240.44 27:0.33 28:2 29:4 30:9 31:0.21 32:19 33:30 34:17 35:13 36:14 37:1 39:13 
0.1193354095737193 2:5 3:2 6:8 7:3 8:0.14 9:4 10:3 11:1 12:12 13:1 15:21 16:1 19:34.57 20:10.93 21:4129.37 22:0.13 23:72 24:0.09 25:229.41 26:377.85 27:0.33 28:2 29:4 30:11 31:0.14 32:27 33:45 34:21 35:17 36:22 37:1 39:21 
0.1193354095737193 2:5 3:2 6:8 7:3 8:0.14 9:4 10:3 11:1 12:12 13:1 15:21 16:1 19:36.48 20:10.43 21:3969.82 22:0.13 23:72 24:0.1 25:220.55 26:380.55 27:0.33 28:2 29:4 30:11 31:0.14 32:27 33:45 34:22 35:17 36:22 37:1 39:21 
0.11933680785598105 2:7 3:3 6:10 7:4 8:0.18 9:4 10:3 11:0.75 12:15 13:4 14:1 15:22 16:1 19:41.71 20:12.75 21:6780.12 22:0.18 23:98 24:0.08 25:376.67 26:531.77 27:1 28:3 29:5 30:13 31:0.17 32:39 33:59 34:26 35:17 36:23 37:1 39:22 
0.1193368109830853 1:2 2:15 3:2 4:1 5:9 6:24 7:8 8:0.19 9:10 10:6 11:0.75 12:24 13:6 14:0.71 15:41 16:4 19:75.22 20:14.8 21:16481.41 22:0.37 23:187 24:0.07 25:915.63 26:1113.43 27:0.75 28:7 29:12 30:18 31:0.15 32:67 33:120 34:43 35:19 36:54 37:1 38:19.61 39:42 
0.11933688893853672 1:5 2:7 3:1 6:10 7:4 8:0.18 9:4 10:2 11:0.5 12:12 13:3 14:0.67 15:22 19:21.05 20:14.77 21:4591.91 22:0.1 23:64 24:0.07 25:255.11 26:310.91 27:0.75 28:3 29:5 30:10 31:0.14 32:24 33:40 34:13 35:16 36:28 37:1 39:22 
0.1193371986668797 1:14 2:9 3:2 4:5 5:1 6:16 7:5 8:0.15 9:8 10:5 11:1 12:21 13:4 14:0.75 15:28 16:2 19:18.72 20:21.54 21:8684.58 22:0.13 23:83 24:0.05 25:482.48 26:403.21 27:0.8 28:4 29:8 30:18 31:0.1 32:35 33:48 34:13 35:16 36:49 37:1 38:17.65 39:33 
0.1194621338170665 1:5 2:3 3:1 6:4 7:2 8:0.2 9:2 10:2 11:1 12:7 13:1 15:10 16:1 19:10.42 20:6.75 21:474.58 22:0.02 23:19 24:0.15 25:26.37 26:70.31 27:0.5 28:1 29:2 30:7 31:0.13 32:6 33:13 34:4 35:9 36:16 37:1 39:10 
0.11933715954101543 1:12 2:19 3:2 6:36 7:10 8:0.2 9:18 10:9 11:0.9 12:47 13:10 14:1 15:50 16:2 19:65.44 20:11.21 21:8218.63 22:0.24 23:136 24:0.09 25:456.59 26:733.36 27:1 28:9 29:18 30:39 31:0.16 32:50 33:86 34:29 35:13 36:63 37:1 39:50 
0.11945099841853485 1:8 2:19 3:6 4:1 6:32 7:10 8:0.33 9:14 10:8 11:0.8 12:40 13:10 14:1 15:29 16:2 19:31.33 20:20.43 21:13084.38 22:0.21 23:118 24:0.05 25:726.91 26:640.3 27:1 28:9 29:16 30:32 31:0.26 32:47 33:71 34:23 35:20 36:39 37:1 38:3.33 39:30 
0.11933715365370789 1:12 2:19 3:2 6:36 7:10 8:0.2 9:18 10:9 11:0.9 12:47 13:10 14:1 15:50 16:2 19:74.62 20:10.16 21:7697.18 22:0.25 23:138 24:0.1 25:427.62 26:757.88 27:1 28:9 29:18 30:39 31:0.16 32:50 33:88 34:32 35:13 36:63 37:1 39:50 
0.11907487531325195 2:1 7:1 8:0.33 10:1 11:1 12:1 13:1 15:3 19:11.39 20:3.5 21:139.52 22:0.01 23:12 24:0.29 25:7.75 26:39.86 27:1 30:2 31:0.25 32:3 33:9 34:3 35:7 36:4 37:1 39:3 
0.11933688893853672 1:7 2:5 3:1 4:2 6:8 7:3 8:0.13 9:4 10:2 11:0.67 12:10 13:1 15:22 16:2 19:55.95 20:7.24 21:2931.85 22:0.14 23:81 24:0.14 25:162.88 26:405 27:0.33 28:2 29:4 30:9 31:0.09 32:37 33:44 34:23 35:9 36:32 37:1 38:8.33 39:24 
0.11933680785598116 1:5 2:11 3:3 4:2 5:3 6:18 7:6 8:0.3 9:8 10:5 11:0.83 12:21 13:4 14:0.6 15:18 16:1 19:26.39 20:12.07 21:3845.69 22:0.11 23:67 24:0.08 25:213.65 26:318.58 27:0.67 28:5 29:9 30:17 31:0.21 32:26 33:41 34:14 35:13 36:29 37:1 38:21.74 39:20 
0.018248037331630884 1:1 2:1 3:1 7:1 8:0.14 10:1 11:1 12:2 13:1 15:7 16:1 19:12.18 20:3 21:109.62 22:0.01 23:11 24:0.33 25:6.09 26:36.54 27:1 30:3 31:0.11 32:4 33:7 34:4 35:6 36:9 37:1 39:7 
0.1136578251691875 1:1 2:1 7:1 8:0.1 10:1 11:1 12:1 13:1 15:10 16:3 19:17.27 20:2.5 21:107.96 22:0.01 23:13 24:0.4 25:6 26:43.19 27:1 30:2 31:0.08 32:5 33:8 34:5 35:5 36:12 37:1 39:10 
0.11933540957371935 1:3 2:5 3:1 6:8 7:3 8:0.25 9:4 10:2 11:0.67 12:10 13:1 15:12 16:2 19:15.22 20:12 21:2191.93 22:0.06 23:43 24:0.08 25:121.77 26:182.66 27:0.33 28:2 29:4 30:9 31:0.19 32:14 33:29 34:7 35:12 36:16 37:1 39:12 
0.1193497126201159 1:17 2:21 3:4 4:1 5:8 6:36 7:11 8:0.26 9:16 10:5 11:0.45 12:43 13:7 14:0.6 15:41 16:5 19:42.16 20:35.93 21:54431.16 22:0.5 23:241 24:0.03 25:3023.95 26:1514.78 27:0.64 28:10 29:18 30:34 31:0.16 32:98 33:143 34:45 35:33 36:68 37:1 38:18 39:42 
0.11935861285125454 1:16 2:13 3:6 5:5 6:24 7:7 8:0.12 9:12 10:6 11:0.86 12:31 13:1 15:59 16:4 19:95.6 20:31.4 21:94278.09 22:1 23:449 24:0.03 25:5237.67 26:3002.24 27:0.14 28:6 29:12 30:26 31:0.09 32:186 33:263 34:77 35:26 36:81 37:1 38:7.81 39:59 
0.11936014046689769 1:11 2:9 3:6 5:4 6:16 7:5 8:0.12 9:8 10:5 11:1 12:24 13:1 15:42 16:1 19:66.6 20:18.54 21:22884.16 22:0.41 23:209 24:0.05 25:1271.34 26:1234.54 27:0.2 28:4 29:8 30:21 31:0.09 32:80 33:129 34:41 35:19 36:58 37:1 38:8.7 39:42 
0.11936977663935155 1:2 2:1 3:1 7:1 8:0.13 10:1 11:1 12:2 13:1 15:8 16:1 19:14.99 20:5.33 21:426.42 22:0.03 23:21 24:0.19 25:23.69 26:79.95 27:1 30:3 31:0.09 32:8 33:13 34:6 35:8 36:11 37:1 39:8 
0.11945080254654472 1:1 2:3 6:4 7:2 8:0.22 9:2 10:1 11:0.5 12:5 13:1 15:9 16:2 19:14.83 20:3.5 21:181.62 22:0.02 23:15 24:0.29 25:10.09 26:51.89 27:0.5 28:1 29:2 30:5 31:0.18 32:4 33:11 34:4 35:7 36:11 37:1 39:9 
0.11935583182785553 1:10 2:13 3:6 4:1 5:16 6:24 7:7 8:0.18 9:12 10:5 11:0.71 12:29 13:1 15:39 16:5 19:29.5 20:36.25 21:38771.24 22:0.36 23:185 24:0.03 25:2153.96 26:1069.55 27:0.14 28:6 29:12 30:24 31:0.1 32:65 33:120 34:26 35:29 36:67 37:1 38:30.36 39:40 
0.11941189645332789 1:2 2:1 3:1 7:1 8:0.08 10:1 11:1 12:2 13:1 15:12 16:4 19:15.9 20:6.43 21:656.91 22:0.03 23:25 24:0.16 25:36.5 26:102.19 27:1 30:3 31:0.07 32:9 33:16 34:7 35:10 36:15 37:1 39:12 
-1 1:15 2:7 3:3 4:1 5:19 6:12 7:4 8:0.13 9:6 10:2 11:0.5 12:17 13:1 15:31 16:1 19:38.55 20:21.52 21:17846.19 22:0.28 23:141 24:0.05 25:991.46 26:829.45 27:0.25 28:3 29:6 30:15 31:0.06 32:51 33:90 34:32 35:27 36:67 37:1 38:39.22 39:32 
-1 1:27 2:9 3:1 4:4 5:22 6:16 7:5 8:0.15 9:8 10:3 11:0.6 12:18 13:1 15:29 19:52.03 20:12.33 21:7914.68 22:0.21 23:111 24:0.08 25:439.7 26:641.73 27:0.2 28:4 29:8 30:15 31:0.06 32:37 33:74 34:33 35:22 36:83 37:1 38:47.27 39:33 
-1 1:155 2:71 3:5 4:14 5:170 6:122 7:37 8:0.18 9:58 10:26 11:0.7 12:148 13:21 14:0.56 15:196 16:1 19:127.7 20:71.54 21:653537.1 22:3.05 23:1177 24:0.01 25:36307.62 26:9135.35 27:0.57 28:32 29:61 30:113 31:0.07 32:454 33:723 34:165 35:52 36:536 37:1 38:48.42 39:210 
-1 1:30 2:19 3:5 4:6 5:45 6:36 7:10 8:0.13 9:18 10:9 11:0.9 12:48 13:8 14:0.78 15:71 16:1 19:46.15 20:27.11 21:33930.43 22:0.42 23:211 24:0.04 25:1885.02 26:1251.39 27:0.8 28:9 29:18 30:40 31:0.07 32:73 33:138 34:35 35:26 36:153 37:1 38:41.8 39:77 
-1 1:9 2:3 3:2 5:7 6:4 7:2 8:0.13 9:2 10:2 11:1 12:6 13:1 15:15 19:27.05 20:14.25 21:5493.37 22:0.13 23:74 24:0.07 25:305.19 26:385.5 27:0.5 28:1 29:2 30:6 31:0.06 32:27 33:47 34:18 35:19 36:32 37:1 38:31.82 39:15 
-1 1:93 2:25 3:10 4:11 5:57 6:48 7:13 8:0.08 9:24 10:12 11:0.92 12:69 13:1 15:143 16:1 19:175.18 20:28.52 21:142535.33 22:1.67 23:695 24:0.04 25:7918.63 26:4996.93 27:0.08 28:12 29:24 30:58 31:0.04 32:290 33:405 34:122 35:24 36:305 37:1 38:32.22 39:154 
-1 1:31 2:11 3:5 4:7 5:30 6:20 7:6 8:0.15 9:10 10:5 11:0.83 12:26 13:1 15:33 19:53.63 20:18.46 21:18269.63 22:0.33 23:172 24:0.05 25:1014.98 26:989.84 27:0.17 28:5 29:10 30:22 31:0.06 32:68 33:104 34:35 35:19 36:102 37:1 38:52.86 39:40 
-1 1:62 2:7 3:3 4:7 5:46 6:12 7:4 8:0.04 9:6 10:4 11:1 12:15 13:1 15:92 19:234.02 20:26.64 21:166113.93 22:2.08 23:822 24:0.04 25:9228.55 26:6234.84 27:0.25 28:3 29:6 30:13 31:0.02 32:373 33:449 34:168 35:24 36:215 37:1 38:36.55 39:99 
-1 1:36 2:13 3:5 4:6 5:14 6:24 7:7 8:0.14 9:12 10:7 11:1 12:30 13:1 15:44 19:78.96 20:22.12 21:38620.28 22:0.58 23:269 24:0.05 25:2145.57 26:1746.31 27:0.14 28:6 29:12 30:25 31:0.07 32:115 33:154 34:65 35:25 36:101 37:1 38:31.25 39:50 
-0.88059524738471662 1:7 2:1 5:1 7:1 8:0.08 10:1 11:1 12:1 13:1 15:12 16:1 19:17.77 20:9 21:1439.2 22:0.05 23:37 24:0.11 25:79.96 26:159.91 27:1 30:2 31:0.05 32:12 33:25 34:8 35:12 36:21 37:1 38:7.69 39:12 
-1 1:7 2:1 5:1 7:1 8:0.08 10:1 11:1 12:1 13:1 15:12 16:1 19:17.77 20:9 21:1439.2 22:0.05 23:37 24:0.11 25:79.96 26:159.91 27:1 30:2 31:0.05 32:12 33:25 34:8 35:12 36:21 37:1 38:7.69 39:12 
-1 1:55 2:34 3:25 4:3 5:91 6:12 7:30 8:0.22 9:6 10:26 11:0.87 12:70 13:1 15:133 16:3 19:54.04 20:77.46 21:324260.81 22:1.4 23:605 24:0.01 25:18014.49 26:4185.91 27:0.03 28:3 29:6 30:42 31:0.11 32:220 33:385 34:71 35:50 36:283 37:1 38:41.41 39:136 
-1 1:46 2:39 3:6 4:20 5:96 6:70 7:20 8:0.18 9:32 10:4 11:0.2 12:97 13:9 14:0.42 15:91 16:1 19:72.67 20:51.47 21:192513.32 22:1.25 23:568 24:0.02 25:10695.18 26:3740.26 27:0.45 28:19 29:35 30:79 31:0.08 32:250 33:318 34:68 35:28 36:254 37:1 38:56.04 39:111 
-1 1:9 2:19 4:6 5:6 6:36 7:10 8:0.16 9:18 10:1 11:0.1 12:38 13:5 14:0.44 15:58 16:3 19:30.99 20:33.52 21:34816.7 22:0.35 23:187 24:0.03 25:1934.26 26:1038.71 27:0.5 28:9 29:18 30:30 31:0.13 32:83 33:104 34:26 35:21 36:80 37:1 38:17.14 39:64 
-1 1:9 2:5 3:4 5:11 6:8 7:3 8:0.11 9:4 10:2 11:0.67 12:16 13:1 15:28 16:1 19:36.57 20:15.24 21:8490.44 22:0.19 23:104 24:0.07 25:471.69 26:557.19 27:0.33 28:2 29:4 30:15 31:0.06 32:32 33:72 34:21 35:20 36:49 37:1 38:28.21 39:28 
-1 1:10 2:37 3:12 5:62 6:64 7:20 8:0.13 9:32 10:18 11:0.9 12:95 13:1 15:149 19:171.78 20:29.58 21:150305.78 22:1.69 23:702 24:0.03 25:8350.32 26:5081.36 27:0.05 28:16 29:32 30:77 31:0.09 32:220 33:482 34:119 35:32 36:222 37:1 38:29.38 39:149 
-1 1:42 2:141 3:24 4:45 5:339 6:238 7:73 8:0.16 9:106 10:41 11:0.56 12:303 13:30 14:0.4 15:411 16:7 19:293.68 20:43.41 21:553518.63 22:4.25 23:1500 24:0.02 25:30751.03 26:12749.77 27:0.41 28:66 29:119 30:232 31:0.13 32:568 33:932 34:314 35:48 36:555 37:1 38:48.3 39:456 
-1 1:16 2:29 3:5 4:3 5:29 6:54 7:15 8:0.12 9:26 10:12 11:0.8 12:76 13:3 14:0.14 15:121 19:164.09 20:23.26 21:88801.93 22:1.27 23:537 24:0.04 25:4933.44 26:3817.28 27:0.2 28:14 29:27 30:63 31:0.09 32:221 33:316 34:114 35:24 36:170 37:1 38:20.92 39:124 
-1 1:2 2:23 3:10 4:14 5:78 6:42 7:12 8:0.13 9:20 10:6 11:0.5 12:52 13:4 14:0.27 15:79 16:7 19:89.42 20:13.73 21:16858.82 22:0.41 23:201 24:0.07 25:936.6 26:1227.81 27:0.33 28:11 29:21 30:42 31:0.07 32:84 33:117 34:52 35:17 36:174 37:1 38:53.8 39:93 
-1 1:1 2:7 3:5 5:12 6:12 7:4 8:0.1 9:6 10:3 11:0.75 12:20 13:3 14:0.67 15:41 19:56.52 20:13.19 21:9840.36 22:0.25 23:129 24:0.08 25:546.69 26:745.8 27:0.75 28:3 29:6 30:18 31:0.06 32:50 33:79 34:36 35:19 36:68 37:1 38:22.64 39:41 
-1 1:12 2:37 3:12 4:23 5:65 6:60 7:20 8:0.13 9:28 10:10 11:0.5 12:104 13:9 14:0.42 15:130 16:1 19:83 20:51.6 21:220979.91 22:1.43 23:607 24:0.02 25:12276.66 26:4282.56 27:0.45 28:16 29:30 30:86 31:0.09 32:258 33:349 34:95 35:38 36:231 37:1 38:40.37 39:153 
-1 1:6 2:15 3:6 4:6 5:7 6:20 7:9 8:0.14 9:10 10:7 11:0.78 12:38 13:1 15:57 16:7 19:45.05 20:29.27 21:38588.27 22:0.44 23:213 24:0.03 25:2143.79 26:1318.43 27:0.11 28:5 29:10 30:31 31:0.12 32:75 33:138 34:41 35:32 36:77 37:1 38:18.57 39:63 
-1 1:3 2:9 3:3 4:6 5:4 6:16 7:5 8:0.09 9:8 10:5 11:1 12:33 13:1 15:49 16:8 19:102.23 20:12.09 21:14944.77 22:0.41 23:211 24:0.08 25:830.27 26:1236.03 27:0.2 28:4 29:8 30:30 31:0.08 32:76 33:135 34:44 35:14 36:63 37:1 38:16.95 39:55 
-1 1:40 2:5 3:3 4:2 5:11 6:8 7:3 8:0.1 9:4 10:3 11:1 12:16 13:1 15:28 16:1 19:44.75 20:18.67 21:15592.09 22:0.28 23:148 24:0.05 25:866.23 26:835.29 27:0.33 28:2 29:4 30:15 31:0.04 32:56 33:92 34:30 35:20 36:82 37:1 38:31.71 39:30 
-1 1:25 2:15 3:7 4:6 5:39 6:28 7:8 8:0.1 9:14 10:7 11:0.88 12:46 13:1 15:71 16:6 19:90.85 20:21.94 21:43721.41 22:0.66 23:307 24:0.05 25:2428.97 26:1993 27:0.13 28:7 29:14 30:40 31:0.06 32:108 33:199 34:64 35:26 36:142 37:1 38:38.79 39:77 
-1 1:27 2:3 3:2 4:1 5:19 6:4 7:2 8:0.09 9:2 10:2 11:1 12:7 13:1 15:22 16:1 19:37.27 20:15.43 21:8872.37 22:0.19 23:114 24:0.06 25:492.91 26:575.06 27:0.5 28:1 29:2 30:7 31:0.03 32:54 33:60 34:21 35:12 36:70 37:1 38:47.62 39:23 
